{"learner":{"attributes":{"best_iteration":"99","best_ntree_limit":"100","scikit_learn":"{\"use_label_encoder\": null, \"n_estimators\": 100, \"objective\": \"binary:logistic\", \"max_depth\": null, \"max_leaves\": null, \"max_bin\": null, \"grow_policy\": null, \"learning_rate\": null, \"verbosity\": null, \"booster\": null, \"tree_method\": null, \"gamma\": null, \"min_child_weight\": null, \"max_delta_step\": null, \"subsample\": null, \"sampling_method\": null, \"colsample_bytree\": null, \"colsample_bylevel\": null, \"colsample_bynode\": null, \"reg_alpha\": null, \"reg_lambda\": null, \"scale_pos_weight\": 1.4504054897067997, \"base_score\": null, \"missing\": NaN, \"num_parallel_tree\": null, \"random_state\": 42, \"n_jobs\": -1, \"monotone_constraints\": null, \"interaction_constraints\": null, \"importance_type\": null, \"gpu_id\": null, \"validate_parameters\": null, \"predictor\": null, \"enable_categorical\": false, \"feature_types\": null, \"max_cat_to_onehot\": null, \"max_cat_threshold\": null, \"eval_metric\": \"aucpr\", \"early_stopping_rounds\": null, \"callbacks\": null, \"classes_\": [0, 1], \"n_classes_\": 2, \"_estimator_type\": \"classifier\"}"},"feature_names":["depth","n_native","n_pres","n_vagabond","n_class","n_order","n_family","n_genus","max_temp","elevation","min_temp","mean_temp","prec_sum_mean","class","order"],"feature_types":["float","float","float","float","float","float","float","float","float","float","float","float","float","int","int"],"gradient_booster":{"model":{"gbtree_model_param":{"num_parallel_tree":"1","num_trees":"100","size_leaf_vector":"0"},"tree_info":[0,0,0,0,0,0,0,0,0,0,0,0,0,0,0,0,0,0,0,0,0,0,0,0,0,0,0,0,0,0,0,0,0,0,0,0,0,0,0,0,0,0,0,0,0,0,0,0,0,0,0,0,0,0,0,0,0,0,0,0,0,0,0,0,0,0,0,0,0,0,0,0,0,0,0,0,0,0,0,0,0,0,0,0,0,0,0,0,0,0,0,0,0,0,0,0,0,0,0,0],"trees":[{"base_weights":[-3.0976404E-5,7.997929E-1,-1.3398783E0,1.1773951E0,4.2380738E-1,-6.613508E-1,-1.676101E0,1.9255323E0,1.0265968E0,-1.4223444E0,5.475281E-1,3.0265328E-1,-9.742916E-1,-1.7017739E0,1.289017E0,8.371024E-1,1.5885646E0,-1.7382773E0,7.926376E-1,1.0417999E0,2.645336E-1,-7.663767E-1,6.5703213E-1,-1.6114717E0,-7.6378185E-1,-1.1681472E0,-1.7645952E0,-1.9153737E-1,8.8004386E-1,1.6280005E0,6.778927E-1,-5.3957355E-1,-1.8012737E0,1.0420557E0,2.0241098E-1,-2.6157233E-1,1.3145659E0,-3.5979995E-1,3.8671154E-1,6.4425415E-1,-1.2712768E0,-9.019672E-2,1.2794372E0,-1.715674E0,-2.0036548E-2,-8.506164E-1,1.009462E0,6.778927E-1,-1.4375287E0,-8.432205E-1,-1.8114394E0,-1.2904198E0,8.600551E-1,-1E0,8.945811E-1,1.6739517E0,5.630836E-1,-1E0,1.4347423E0,-6.9359124E-1,1.0699428E0,-3.5278085E-1,1.3544595E0,2.785961E-1,-1.0073354E0,-8.818337E-2,6.3381845E-1,-4.8046422E-1,-1.5555556E0,-8.158173E-1,9.335255E-1,4.3769798E-1,1.4005636E0,-1.7691041E0,-3.6675033E-1,1.1838086E0,-9.0786743E-1,1.289017E0,2.0241098E-1,1.289017E0,-2.0167106E-1,-9.4459695E-1,-1.8518518E0,4.3769798E-1,-1.1443613E0,-3.6675033E-1,-1.8171518E0],"categories":[],"categories_nodes":[],"categories_segments":[],"categories_sizes":[],"default_left":[1,1,1,1,1,1,1,0,1,1,1,1,1,1,0,1,1,1,1,1,1,1,1,1,1,1,1,1,1,1,1,0,0,0,0,1,1,1,1,0,1,1,1,1,0,1,1,1,1,1,1,0,0,0,0,0,0,0,0,0,0,0,0,0,0,0,0,0,0,0,0,0,0,0,0,0,0,0,0,0,0,0,0,0,0,0,0],"id":0,"left_children":[1,3,5,7,9,11,13,-1,15,17,19,21,23,25,-1,27,29,31,33,35,37,39,41,43,45,47,49,51,53,55,57,-1,-1,-1,-1,59,61,63,65,-1,67,69,71,73,-1,75,77,79,81,83,85,-1,-1,-1,-1,-1,-1,-1,-1,-1,-1,-1,-1,-1,-1,-1,-1,-1,-1,-1,-1,-1,-1,-1,-1,-1,-1,-1,-1,-1,-1,-1,-1,-1,-1,-1,-1],"loss_changes":[1.123599E3,9.27139E1,8.8305115E1,3.4915802E1,7.6277275E1,3.9968964E1,2.2093506E1,0E0,2.7879852E1,1.6100056E1,4.3156693E1,1.300253E1,1.2118004E1,6.6415405E0,0E0,9.322647E0,1.3404388E0,4.420929E-1,2.767949E-1,4.0414474E1,1.530309E1,6.998036E0,1.1889833E1,3.914566E0,1.2669834E1,1.6043156E1,8.41272E0,1.1655641E1,6.3365173E0,2.2144623E0,7.1978717E0,0E0,0E0,0E0,0E0,1.2442383E1,6.6885834E0,1.3944494E1,1.9622822E1,0E0,7.6451206E-1,1.0001713E1,8.019409E-1,9.6113586E-1,0E0,9.655106E0,6.5016985E-1,2.6993484E0,3.7167206E0,5.5206385E0,1.1350708E0,0E0,0E0,0E0,0E0,0E0,0E0,0E0,0E0,0E0,0E0,0E0,0E0,0E0,0E0,0E0,0E0,0E0,0E0,0E0,0E0,0E0,0E0,0E0,0E0,0E0,0E0,0E0,0E0,0E0,0E0,0E0,0E0,0E0,0E0,0E0,0E0],"parents":[2147483647,0,0,1,1,2,2,3,3,4,4,5,5,6,6,8,8,9,9,10,10,11,11,12,12,13,13,15,15,16,16,17,17,18,18,19,19,20,20,21,21,22,22,23,23,24,24,25,25,26,26,27,27,28,28,29,29,30,30,35,35,36,36,37,37,38,38,40,40,41,41,42,42,43,43,45,45,46,46,47,47,48,48,49,49,50,50],"right_children":[2,4,6,8,10,12,14,-1,16,18,20,22,24,26,-1,28,30,32,34,36,38,40,42,44,46,48,50,52,54,56,58,-1,-1,-1,-1,60,62,64,66,-1,68,70,72,74,-1,76,78,80,82,84,86,-1,-1,-1,-1,-1,-1,-1,-1,-1,-1,-1,-1,-1,-1,-1,-1,-1,-1,-1,-1,-1,-1,-1,-1,-1,-1,-1,-1,-1,-1,-1,-1,-1,-1,-1,-1],"split_conditions":[-2.9201093E-1,-4.26183E-1,-2.0615776E-1,-3.778641E-1,-1.5240864E0,1.35E1,4.261736E0,5.776597E-1,7.6614285E-1,-6.487096E-1,9.429681E-2,3E0,2.5E1,5E-1,3.867051E-1,-2.6539588E-1,1.5622189E0,-1.8675845E0,-2.790769E-1,-3.9985037E-1,1.8E1,-4.3467632E-1,-4.31001E-1,5.26181E0,1.3131926E0,-6.9655895E-1,-1.8576158E0,5.090247E-1,-3.8624382E0,1.2199723E0,1.5916865E0,-1.6187207E-1,-5.4038215E-1,3.1261674E-1,6.0723297E-2,7.083672E-1,-1.9691061E0,-1.0553797E0,-2.008975E-2,1.9327626E-1,-4.26183E-1,7.879602E-1,-5.239899E-1,1.644493E0,-6.010965E-3,-2.2693658E0,9.429681E-2,-4.192664E-1,3.4110856E-1,-1.2030459E-1,-1.646197E0,-3.8712597E-1,2.5801653E-1,-3E-1,2.6837432E-1,5.021855E-1,1.6892508E-1,-3E-1,4.3042272E-1,-2.0807739E-1,3.2098287E-1,-1.0583426E-1,4.063379E-1,8.357883E-2,-3.0220065E-1,-2.6455013E-2,1.9014554E-1,-1.4413927E-1,-4.666667E-1,-2.447452E-1,2.8005767E-1,1.313094E-1,4.201691E-1,-5.3073126E-1,-1.100251E-1,3.551426E-1,-2.7236024E-1,3.867051E-1,6.0723297E-2,3.867051E-1,-6.0501322E-2,-2.833791E-1,-5.555556E-1,1.313094E-1,-3.433084E-1,-1.100251E-1,-5.451456E-1],"split_indices":[1,6,1,1,4,14,0,0,10,5,5,14,14,13,0,0,11,9,0,6,14,7,7,0,10,12,11,8,8,8,11,0,0,0,0,10,10,12,10,0,6,10,6,10,0,11,5,10,10,1,12,0,0,0,0,0,0,0,0,0,0,0,0,0,0,0,0,0,0,0,0,0,0,0,0,0,0,0,0,0,0,0,0,0,0,0,0],"split_type":[0,0,0,0,0,0,0,0,0,0,0,0,0,0,0,0,0,0,0,0,0,0,0,0,0,0,0,0,0,0,0,0,0,0,0,0,0,0,0,0,0,0,0,0,0,0,0,0,0,0,0,0,0,0,0,0,0,0,0,0,0,0,0,0,0,0,0,0,0,0,0,0,0,0,0,0,0,0,0,0,0,0,0,0,0,0,0],"sum_hessian":[1.0464838E3,6.5555334E2,3.9093045E2,3.2600998E2,3.2954337E2,1.3051216E2,2.6041827E2,5.2714596E1,2.7329538E2,2.003821E1,3.0950516E2,3.199267E1,9.851949E1,2.586053E2,1.8130069E0,2.0624095E2,6.705443E1,1.7725203E1,2.3130069E0,1.1171132E2,1.9779382E2,7.675608E0,2.4317062E1,2.2813007E1,7.570649E1,2.9301622E1,2.2930365E2,8.126014E0,1.9811494E2,6.351622E1,3.5382097E0,1.3626014E0,1.6362602E1,1.0878041E0,1.2252028E0,1.9339832E1,9.237149E1,3.205365E1,1.6574017E2,1.9504055E0,5.7252026E0,1.143902E1,1.2878041E1,2.1337805E1,1.4752028E0,7.266828E1,3.0382097E0,3.5382097E0,2.5763412E1,1.2013412E1,2.1729024E2,3.8626013E0,4.2634125E0,1E0,1.9711494E2,6.034061E1,3.1756082E0,1E0,2.5382097E0,1.4963818E1,4.3760138E0,1.9752028E0,9.0396286E1,1.6427635E1,1.5626014E1,5.6945103E1,1.08795074E2,2.2252028E0,3.5E0,6.813007E0,4.6260138E0,2.2004056E0,1.0677635E1,2.0225203E1,1.1126014E0,1.4504055E0,7.121787E1,1.8130069E0,1.2252028E0,1.8130069E0,1.7252028E0,1.3263412E1,1.25E1,2.2004056E0,9.813006E0,1.1126014E0,2.1617764E2],"tree_param":{"num_deleted":"0","num_feature":"15","num_nodes":"87","size_leaf_vector":"0"}},{"base_weights":[-9.924738E-4,5.809898E-1,-1.00142E0,1.4939288E0,4.7908095E-1,-4.7820276E-1,-1.2709285E0,1.5679393E0,-1.2749131E0,-8.4848005E-1,5.353577E-1,2.2402485E-1,-7.0642763E-1,-1.2921578E0,1.0679467E0,9.101684E-1,-1.1792787E0,7.494925E-1,3.4073514E-1,-8.580004E-1,4.629669E-1,-1.2446245E0,-5.373943E-1,-8.7698543E-1,-1.3423202E0,3.427994E-2,-1.3613299E0,6.0205007E-1,1.1981469E0,6.713068E-1,1.706162E-1,-1.1627539E0,9.6212484E-2,1.6437307E-1,9.989611E-1,-1.4884311E0,3.5912088E-1,2.3850594E-3,-6.7534786E-1,5.5659765E-1,-1.0932114E0,-6.230551E-1,-1.3807805E0,-5.804512E-1,6.413164E-1,-4.4810477E-1,-1.4091846E0,6.195772E-1,-6.727824E-1,1.2890261E0,7.3974764E-1,-2.1407183E-1,8.811301E-1,-1.188865E0,2.008588E-1,-1.3162229E0,-3.3160838E-1,-4.693596E-1,6.867993E-1,8.967096E-2,1.1173964E0,-1.5467709E0,-5.872455E-1,7.964545E-1,-3.7484422E-1,4.082499E-1,-8.970896E-1,9.939476E-1,-7.323186E-1,9.953707E-1,-4.135595E-1,-6.956495E-1,-1.4486839E0,-9.895885E-1,3.4585127E-1,-9.817719E-1,-1.415753E0],"categories":[],"categories_nodes":[],"categories_segments":[],"categories_sizes":[],"default_left":[1,1,1,1,1,1,1,0,0,1,1,1,1,1,0,0,1,1,1,1,1,1,1,1,1,1,1,1,1,1,1,1,0,1,1,1,1,1,1,1,1,1,1,0,0,0,0,0,0,0,0,0,0,0,0,0,0,0,0,0,0,0,0,0,0,0,0,0,0,0,0,0,0,0,0,0,0],"id":1,"left_children":[1,3,5,7,9,11,13,-1,-1,15,17,19,21,23,-1,-1,25,27,29,31,33,35,37,39,41,43,45,47,49,51,53,55,-1,57,59,61,63,65,67,69,71,73,75,-1,-1,-1,-1,-1,-1,-1,-1,-1,-1,-1,-1,-1,-1,-1,-1,-1,-1,-1,-1,-1,-1,-1,-1,-1,-1,-1,-1,-1,-1,-1,-1,-1,-1],"loss_changes":[5.879138E2,5.867784E1,5.1759888E1,1.5039001E1,4.3469437E1,2.0650005E1,1.3520508E1,0E0,0E0,1.4919909E1,2.278926E1,8.70195E0,8.131855E0,3.878601E0,0E0,0E0,4.5688E0,1.6639633E1,1.6278893E1,1.9034138E0,4.150715E0,9.2780075E0,5.6145916E0,9.614634E0,5.079193E0,1.7326164E0,1.474495E-1,4.875412E0,1.7086716E0,1.85253E1,8.206896E0,1.6888618E-1,0E0,6.4512258E0,9.1737175E-1,1.22406006E-1,1.5043391E0,6.33132E0,6.4375725E0,2.3146443E0,2.607771E0,4.8597293E0,1.442627E0,0E0,0E0,0E0,0E0,0E0,0E0,0E0,0E0,0E0,0E0,0E0,0E0,0E0,0E0,0E0,0E0,0E0,0E0,0E0,0E0,0E0,0E0,0E0,0E0,0E0,0E0,0E0,0E0,0E0,0E0,0E0,0E0,0E0,0E0],"parents":[2147483647,0,0,1,1,2,2,3,3,4,4,5,5,6,6,9,9,10,10,11,11,12,12,13,13,16,16,17,17,18,18,19,19,20,20,21,21,22,22,23,23,24,24,25,25,26,26,27,27,28,28,29,29,30,30,31,31,33,33,34,34,35,35,36,36,37,37,38,38,39,39,40,40,41,41,42,42],"right_children":[2,4,6,8,10,12,14,-1,-1,16,18,20,22,24,-1,-1,26,28,30,32,34,36,38,40,42,44,46,48,50,52,54,56,-1,58,60,62,64,66,68,70,72,74,76,-1,-1,-1,-1,-1,-1,-1,-1,-1,-1,-1,-1,-1,-1,-1,-1,-1,-1,-1,-1,-1,-1,-1,-1,-1,-1,-1,-1,-1,-1,-1,-1,-1,-1],"split_conditions":[-2.9201093E-1,-3.778641E-1,-2.0615776E-1,1.9389217E0,-1.5240864E0,1.35E1,4.261736E0,4.703818E-1,-3.8247395E-1,5E-1,-4.26183E-1,-7.477387E-1,-6.487096E-1,5E-1,3.2038403E-1,2.7305055E-1,-4.5627743E-1,7.6614285E-1,9.429681E-2,3.7990373E-1,-3.8856494E-1,4.0783105E0,1E0,-6.9655895E-1,-1.8576158E0,1.4394438E-1,-1.8675845E0,7.334168E-1,-3.868975E-1,-3.9985037E-1,-1.7246134E0,1.0320483E-1,2.8863747E-2,7.556381E-1,-1.4135691E0,8.469895E-1,-1.0982597E0,8.76195E-1,-2.2693658E0,4.042217E-1,3.4110856E-1,-3.868975E-1,-5.239899E-1,-1.7413536E-1,1.9239493E-1,-1.3443144E-1,-4.227554E-1,1.8587318E-1,-2.0183474E-1,3.8670787E-1,2.219243E-1,-6.422155E-2,2.6433903E-1,-3.566595E-1,6.0257643E-2,-3.9486688E-1,-9.948252E-2,-1.4080788E-1,2.060398E-1,2.690129E-2,3.352189E-1,-4.640313E-1,-1.7617366E-1,2.3893635E-1,-1.12453274E-1,1.22474976E-1,-2.691269E-1,2.981843E-1,-2.1969558E-1,2.9861122E-1,-1.2406785E-1,-2.0869486E-1,-4.3460518E-1,-2.9687655E-1,1.03755385E-1,-2.9453158E-1,-4.2472592E-1],"split_indices":[1,1,1,2,4,14,0,0,0,13,6,10,5,13,0,0,6,10,5,12,6,0,13,12,11,10,9,10,7,6,11,8,0,10,5,12,5,8,11,11,10,7,6,0,0,0,0,0,0,0,0,0,0,0,0,0,0,0,0,0,0,0,0,0,0,0,0,0,0,0,0,0,0,0,0,0,0],"split_type":[0,0,0,0,0,0,0,0,0,0,0,0,0,0,0,0,0,0,0,0,0,0,0,0,0,0,0,0,0,0,0,0,0,0,0,0,0,0,0,0,0,0,0,0,0,0,0,0,0,0,0,0,0,0,0,0,0,0,0,0,0,0,0,0,0,0,0,0,0,0,0,0,0,0,0,0,0],"sum_hessian":[1.0077609E3,6.373894E2,3.7037152E2,6.263362E1,5.7475574E2,1.26861015E2,2.4351051E2,6.1425453E1,1.2081697E0,2.2801226E1,5.519545E2,3.112146E1,9.5739555E1,2.4176363E2,1.7468815E0,3.3325777E0,1.9468647E1,2.614459E2,2.9050864E2,5.160739E0,2.5960722E1,2.1361626E1,7.437793E1,2.8054192E1,2.1370944E2,2.6454825E0,1.6823164E1,1.9854083E2,6.2905067E1,9.770473E1,1.9280391E2,3.7458522E0,1.4148866E0,1.751183E1,8.448892E0,1.8605118E1,2.756508E0,1.5339776E1,5.9038155E1,3.4705064E0,2.4583685E1,1.17204E1,2.0198904E2,1.3361704E0,1.3093121E0,1.3537145E0,1.546945E1,1.9635522E2,2.1856115E0,5.098508E1,1.1919987E1,1.8714796E1,7.898994E1,3.362013E0,1.894419E2,2.6693404E0,1.0765119E0,7.958859E0,9.552971E0,1.1761438E0,7.2727475E0,1.6801096E1,1.804021E0,1.6739465E0,1.0825617E0,1.094655E1,4.3932257E0,1.4056164E0,5.7632538E1,2.3718162E0,1.0986904E0,1.3000662E1,1.1583023E1,8.488056E0,3.2323434E0,1.8620203E1,1.8336884E2],"tree_param":{"num_deleted":"0","num_feature":"15","num_nodes":"77","size_leaf_vector":"0"}},{"base_weights":[-4.894579E-3,4.343765E-1,-8.027823E-1,1.2719407E0,3.5197327E-1,-4.6991837E-1,-1.1382924E0,1.3458198E0,-1.0562626E0,-6.903146E-1,3.9315516E-1,-2.1199066E-2,-6.233472E-1,-1.1764283E0,-5.610574E-1,7.335152E-1,-9.7684044E-1,6.624482E-1,2.8183037E-1,-3.00957E-1,7.472191E-1,-6.857634E-1,8.222365E-1,-8.6251646E-1,-1.2606367E0,3.8380915E-1,-1.2387593E0,2.997004E-2,-1.1466866E0,-2.1743406E-1,7.073044E-1,2.4063092E-1,1.035393E0,-9.632528E-1,-3.3694517E-2,8.670191E-2,1.1476332E0,-5.6930494E-1,-1.2848692E0,-2.0887952E-1,1.3091727E0,-1.0666124E0,1.3776045E0,-1.271135E0,-8.664886E-2,1.1395986E0,-7.933968E-3,-5.1048106E-1,5.608537E-1,-1.2120743E0,-4.0006E-1,-8.500561E-1,4.4497666E-1,5.98111E-1,1.0078478E0,2.736851E-1,-8.339843E-1,-1.1475221E-1,1.3335357E0,-2.813091E-1,-1.156305E0,1.1565261E0,-1.7277779E-1,4.76479E-1,-6.074814E-1,1.386998E0,5.6692433E-1,-7.461285E-1,-1.9371837E-1,-1.5991905E-1,-1.3587184E0,-4.8048776E-2,-1.1000473E0,4.687229E-1,1.6251473E0,-1.2779449E0,-2.9301208E-1,8.058977E-1,-7.878546E-1],"categories":[],"categories_nodes":[],"categories_segments":[],"categories_sizes":[],"default_left":[1,1,1,1,1,1,1,0,0,1,1,1,1,1,1,0,1,1,1,1,1,1,1,1,1,1,0,1,1,1,1,1,1,1,1,1,1,1,1,0,0,1,1,1,0,0,1,0,0,0,0,0,0,0,0,0,0,0,0,0,0,0,0,0,0,0,0,0,0,0,0,0,0,0,0,0,0,0,0],"id":2,"left_children":[1,3,5,7,9,11,13,-1,-1,15,17,19,21,23,25,-1,27,29,31,33,35,37,39,41,43,45,-1,47,49,51,53,55,57,59,61,63,65,67,69,-1,-1,71,73,75,-1,-1,77,-1,-1,-1,-1,-1,-1,-1,-1,-1,-1,-1,-1,-1,-1,-1,-1,-1,-1,-1,-1,-1,-1,-1,-1,-1,-1,-1,-1,-1,-1,-1,-1],"loss_changes":[3.3024545E2,4.149405E1,3.682788E1,1.0718369E1,2.4078552E1,1.1666088E1,2.9922028E0,0E0,0E0,9.465088E0,1.5828049E1,9.739624E0,1.1967033E1,3.0025177E0,8.2835045E0,0E0,3.1604443E0,6.291252E0,1.1538971E1,5.837146E0,3.1007786E0,7.759384E0,3.1281838E0,1.7879026E1,1.3667297E0,1.7429792E0,0E0,1.3230222E0,2.7999306E-1,3.8597274E0,4.26062E0,1.3062325E1,6.798603E0,9.2512035E-1,4.2824397E0,1.8178247E0,2.4947166E-1,6.741497E0,1.362051E0,0E0,0E0,1.086586E0,1.0725498E-2,4.161377E-1,0E0,0E0,3.7134945E0,0E0,0E0,0E0,0E0,0E0,0E0,0E0,0E0,0E0,0E0,0E0,0E0,0E0,0E0,0E0,0E0,0E0,0E0,0E0,0E0,0E0,0E0,0E0,0E0,0E0,0E0,0E0,0E0,0E0,0E0,0E0,0E0],"parents":[2147483647,0,0,1,1,2,2,3,3,4,4,5,5,6,6,9,9,10,10,11,11,12,12,13,13,14,14,16,16,17,17,18,18,19,19,20,20,21,21,22,22,23,23,24,24,25,25,27,27,28,28,29,29,30,30,31,31,32,32,33,33,34,34,35,35,36,36,37,37,38,38,41,41,42,42,43,43,46,46],"right_children":[2,4,6,8,10,12,14,-1,-1,16,18,20,22,24,26,-1,28,30,32,34,36,38,40,42,44,46,-1,48,50,52,54,56,58,60,62,64,66,68,70,-1,-1,72,74,76,-1,-1,78,-1,-1,-1,-1,-1,-1,-1,-1,-1,-1,-1,-1,-1,-1,-1,-1,-1,-1,-1,-1,-1,-1,-1,-1,-1,-1,-1,-1,-1,-1,-1,-1],"split_conditions":[-2.9201093E-1,-3.778641E-1,-1.2030459E-1,1.9389217E0,-1.5240864E0,1.35E1,2.8E1,4.0374598E-1,-3.168788E-1,5E-1,-4.9389553E-1,-3.8856494E-1,4.261736E0,-4.6380106E-1,8.919899E-2,2.2005457E-1,-4.5627743E-1,-2.6539588E-1,1.5802445E0,1.9302681E-2,-4.2365044E-1,-2.3003271E-1,2.15E1,-4.7132468E-1,1.5916865E0,-1.9276905E-1,-3.716278E-1,-3.0371195E-1,4.5918715E-1,5.242811E-1,7.5765824E-1,-2.2820479E-1,-4.7074926E-1,-4.8162326E-1,-1.6196129E0,3.8290524E-1,-3.058052E-1,-1.8918918E-1,-5.239899E-1,-6.266386E-2,3.9275184E-1,-1.0368202E0,6.523739E-1,2.7762547E0,-2.5994658E-2,3.418796E-1,5.1401746E-2,-1.5314433E-1,1.6825612E-1,-3.636223E-1,-1.20018005E-1,-2.5501683E-1,1.33493E-1,1.794333E-1,3.0235434E-1,8.210553E-2,-2.501953E-1,-3.4425665E-2,4.000607E-1,-8.4392734E-2,-3.468915E-1,3.4695783E-1,-5.183334E-2,1.4294371E-1,-1.8224443E-1,4.1609943E-1,1.7007731E-1,-2.2383855E-1,-5.8115516E-2,-4.797572E-2,-4.0761554E-1,-1.4414634E-2,-3.3001423E-1,1.4061688E-1,4.875442E-1,-3.8338348E-1,-8.7903626E-2,2.4176933E-1,-2.3635639E-1],"split_indices":[1,1,1,2,4,14,14,0,0,13,6,6,0,6,10,0,6,0,0,10,7,0,14,6,11,8,0,12,8,8,10,0,12,8,5,8,6,6,6,0,0,12,1,0,0,0,1,0,0,0,0,0,0,0,0,0,0,0,0,0,0,0,0,0,0,0,0,0,0,0,0,0,0,0,0,0,0,0,0],"split_type":[0,0,0,0,0,0,0,0,0,0,0,0,0,0,0,0,0,0,0,0,0,0,0,0,0,0,0,0,0,0,0,0,0,0,0,0,0,0,0,0,0,0,0,0,0,0,0,0,0,0,0,0,0,0,0,0,0,0,0,0,0,0,0,0,0,0,0,0,0,0,0,0,0,0,0,0,0,0,0],"sum_hessian":[9.4024713E2,6.066926E2,3.3355447E2,5.30496E1,5.53643E2,1.6864262E2,1.6491187E2,5.182696E1,1.2226363E0,2.044444E1,5.331986E2,4.3260574E1,1.2538205E2,1.5371822E2,1.1193652E1,3.1635947E0,1.7280848E1,1.545043E2,3.7869427E2,3.2160313E1,1.1100261E1,1.2069634E2,4.685708E0,3.489167E1,1.1882654E2,4.8564067E0,6.337245E0,2.6133034E0,1.4667543E1,7.3079004E0,1.4719641E2,3.603142E2,1.838009E1,8.497859E0,2.3662455E1,4.648573E0,6.451688E0,1.0268579E2,1.8010546E1,1.6861722E0,2.9995356E0,3.245828E1,2.4333925E0,1.17691345E2,1.1351973E0,1.0061662E0,3.8502407E0,1.314027E0,1.2992765E0,1.2913233E1,1.7543106E0,3.593103E0,3.7147975E0,1.1016232E2,3.703408E1,3.5028506E2,1.0029133E1,3.9103277E0,1.4469763E1,2.41703E0,6.0808287E0,1.7103755E0,2.195208E1,3.1778524E0,1.4707205E0,3.5853639E0,2.8663237E0,6.914584E1,3.353995E1,1.304499E0,1.6706045E1,1.1090558E0,3.1349224E1,1.1402686E0,1.293124E0,1.16573204E2,1.118135E0,1.8678594E0,1.9823813E0],"tree_param":{"num_deleted":"0","num_feature":"15","num_nodes":"79","size_leaf_vector":"0"}},{"base_weights":[-6.4791786E-3,3.2602146E-1,-6.512777E-1,1.1423398E0,2.583814E-1,-2.4131128E-1,-9.033817E-1,1.2196076E0,-9.054795E-1,-1.3425424E0,2.7950493E-1,1.7195033E-1,-3.8238975E-1,-9.2108303E-1,8.095123E-1,4.0773854E-1,1.0531056E-1,-4.425429E-1,3.7668517E-1,-9.331184E-1,-2.3581672E-1,-7.5456816E-1,-1.0978193E0,3.0994532E-1,7.852192E-1,-2.9567474E-1,2.254683E-1,4.6646014E-1,-8.064081E-1,-9.713383E-2,7.9718584E-1,-1.1448842E0,2.2545266E-1,4.1629815E-1,-3.6554134E-1,-7.872345E-1,7.5249547E-1,-1.1340573E0,-5.0491804E-1,2.2538504E-1,9.7455794E-1,1.1024371E0,4.9812427E-1,9.0859073E-1,-4.4652602E-1,-1.5275329E-2,6.395339E-1,-1.0868522E-1,-1.1614816E0,-5.4584944E-1,5.4718E-1,8.9154327E-1,1.8449077E-2,-1.2139094E0,-3.4177095E-1,6.451663E-1,-3.747585E-1,-5.889546E-1,6.9484407E-1,2.2968581E-1,-5.024051E-1,-1.9869336E-1,-8.90171E-1,-1.1584928E0,-5.8748835E-1,2.9190442E-1,-1.0115254E0],"categories":[],"categories_nodes":[],"categories_segments":[],"categories_sizes":[],"default_left":[1,1,1,1,1,1,1,0,0,0,1,1,1,1,0,1,1,1,1,1,1,1,1,1,1,1,1,0,1,1,1,1,1,1,1,1,0,1,1,0,0,0,0,0,0,0,0,0,0,0,0,0,0,0,0,0,0,0,0,0,0,0,0,0,0,0,0],"id":3,"left_children":[1,3,5,7,9,11,13,-1,-1,-1,15,17,19,21,-1,23,25,27,29,31,33,35,37,39,41,43,45,-1,47,49,51,53,55,57,59,61,-1,63,65,-1,-1,-1,-1,-1,-1,-1,-1,-1,-1,-1,-1,-1,-1,-1,-1,-1,-1,-1,-1,-1,-1,-1,-1,-1,-1,-1,-1],"loss_changes":[1.8790466E2,3.163425E1,3.0600311E1,8.059547E0,1.8477882E1,6.7650657E0,6.332962E0,0E0,0E0,0E0,1.177734E1,3.9325519E0,6.71988E0,4.5529785E0,0E0,1.099519E1,1.0942272E1,3.002511E0,4.658547E0,4.6089363E0,6.0095367E0,5.3849564E0,1.2860641E0,1.3462374E1,5.096451E0,9.938822E0,1.7379185E1,0E0,1.3694041E0,3.681997E0,8.866463E-1,4.253769E-1,1.1426157E0,3.7570097E0,4.8634896E0,5.625305E0,0E0,3.9752197E-1,3.0343556E0,0E0,0E0,0E0,0E0,0E0,0E0,0E0,0E0,0E0,0E0,0E0,0E0,0E0,0E0,0E0,0E0,0E0,0E0,0E0,0E0,0E0,0E0,0E0,0E0,0E0,0E0,0E0,0E0],"parents":[2147483647,0,0,1,1,2,2,3,3,4,4,5,5,6,6,10,10,11,11,12,12,13,13,15,15,16,16,17,17,18,18,19,19,20,20,21,21,22,22,23,23,24,24,25,25,26,26,28,28,29,29,30,30,31,31,32,32,33,33,34,34,35,35,37,37,38,38],"right_children":[2,4,6,8,10,12,14,-1,-1,-1,16,18,20,22,-1,24,26,28,30,32,34,36,38,40,42,44,46,-1,48,50,52,54,56,58,60,62,-1,64,66,-1,-1,-1,-1,-1,-1,-1,-1,-1,-1,-1,-1,-1,-1,-1,-1,-1,-1,-1,-1,-1,-1,-1,-1,-1,-1,-1,-1],"split_conditions":[-2.9201093E-1,-3.778641E-1,-2.0615776E-1,1.9389217E0,-2.4079432E0,1.35E1,4.261736E0,3.6588228E-1,-2.7164385E-1,-4.0276274E-1,-3.5094684E-1,3E0,-6.487096E-1,7.6761946E-2,2.428537E-1,7.6614285E-1,2.15E1,-4.3467632E-1,-4.31001E-1,4.0783105E0,-4.9389553E-1,7.057537E-2,1.1386049E0,-3.9985037E-1,-4.256832E-1,2.5E0,-1.8918918E-1,1.3993804E-1,-3.2068446E-2,7.879602E-1,1.2881174E0,8.469895E-1,5.3665524E0,-1.271759E0,-5.3552914E-1,5E-1,2.2574864E-1,2.5374527E0,1.2779465E0,6.761552E-2,2.923674E-1,3.3073115E-1,1.494373E-1,2.7257723E-1,-1.3395782E-1,-4.582599E-3,1.9186017E-1,-3.2605566E-2,-3.484445E-1,-1.6375484E-1,1.6415401E-1,2.67463E-1,5.5347234E-3,-3.6417282E-1,-1.0253129E-1,1.9354989E-1,-1.12427555E-1,-1.7668639E-1,2.0845322E-1,6.890575E-2,-1.5072154E-1,-5.9608012E-2,-2.670513E-1,-3.4754786E-1,-1.7624651E-1,8.757133E-2,-3.0345762E-1],"split_indices":[1,1,1,2,11,14,0,0,0,0,6,14,5,12,0,10,14,7,7,0,6,12,8,6,8,14,6,0,8,10,8,12,0,10,8,13,0,9,8,0,0,0,0,0,0,0,0,0,0,0,0,0,0,0,0,0,0,0,0,0,0,0,0,0,0,0,0],"split_type":[0,0,0,0,0,0,0,0,0,0,0,0,0,0,0,0,0,0,0,0,0,0,0,0,0,0,0,0,0,0,0,0,0,0,0,0,0,0,0,0,0,0,0,0,0,0,0,0,0,0,0,0,0,0,0,0,0,0,0,0,0,0,0,0,0,0,0],"sum_hessian":[8.744472E2,5.7726544E2,2.9718173E2,4.295629E1,5.343092E2,1.1390649E2,1.8327527E2,4.178414E1,1.1721513E0,6.143518E0,5.2816565E2,2.8933289E1,8.49732E1,1.8185817E2,1.4170884E0,3.0344394E2,2.2472171E2,6.9404907E0,2.1992798E1,1.673341E1,6.8239784E1,9.634996E1,8.550821E1,2.4245316E2,6.0990795E1,5.1476337E1,1.7324538E2,1.9034241E0,5.0370665E0,1.0702385E1,1.1290414E1,1.415749E1,2.5759192E0,1.0955964E1,5.728382E1,9.477334E1,1.5766203E0,7.9722855E1,5.7853575E0,2.1627509E2,2.6178078E1,2.7626095E1,3.33647E1,5.1711636E0,4.6305172E1,1.1015993E2,6.308544E1,2.1393383E0,2.8977282E0,6.398875E0,4.3035097E0,9.941029E0,1.3493853E0,1.2565978E1,1.591512E0,1.4718149E0,1.1041044E0,2.1353273E0,8.820637E0,1.0582374E1,4.6701447E1,1.4544606E1,8.022874E1,7.5239525E1,4.4833274E0,2.4133308E0,3.3720267E0],"tree_param":{"num_deleted":"0","num_feature":"15","num_nodes":"67","size_leaf_vector":"0"}},{"base_weights":[-6.9508255E-3,1.7550382E-1,-7.70647E-1,1.0552411E0,1.2600923E-1,-7.8729546E-1,7.235995E-1,1.1381977E0,-7.9359823E-1,-6.805782E-1,1.6101734E-1,-6.1796063E-1,-9.8028725E-1,8.311636E-1,-8.030418E-1,3.808414E-1,7.822093E-2,2.528195E-1,-6.6891414E-1,-1.0186381E0,-4.2635748E-1,-1.0039078E0,7.489965E-2,-4.89719E-1,4.0904933E-1,-3.239058E-1,1.3655943E-1,7.666136E-1,-7.3119164E-1,4.54034E-1,-7.127721E-1,-5.018293E-1,-1.0586518E0,2.2277512E-1,-9.093476E-1,-1.2049248E0,-6.514405E-1,8.5165095E-1,-9.8296064E-1,2.2219841E-1,-1.004511E0,4.5891365E-1,-3.5119902E-2,-4.0337488E-1,6.726229E-1,-3.2279783E-1,1.871205E-1,1.143267E0,4.00946E-2,-3.104368E-1,1.1007825E0,-1.6446142E-1,-8.075421E-1,-8.5556716E-1,4.416947E-1,-1.1173286E0,-7.1055156E-1,-2.045814E-1,5.769927E-1],"categories":[],"categories_nodes":[],"categories_segments":[],"categories_sizes":[],"default_left":[1,1,1,1,1,1,0,0,0,1,1,1,1,0,1,1,1,1,1,1,1,1,1,1,1,1,1,1,0,1,1,1,1,1,0,0,0,0,0,0,0,0,0,0,0,0,0,0,0,0,0,0,0,0,0,0,0,0,0],"id":4,"left_children":[1,3,5,7,9,11,-1,-1,-1,13,15,17,19,-1,21,23,25,27,29,31,33,35,37,39,41,43,45,47,-1,49,51,53,55,57,-1,-1,-1,-1,-1,-1,-1,-1,-1,-1,-1,-1,-1,-1,-1,-1,-1,-1,-1,-1,-1,-1,-1,-1,-1],"loss_changes":[1.13726715E2,2.8553585E1,4.4850616E0,6.2645645E0,1.775398E1,4.4967422E0,0E0,0E0,0E0,5.5150013E0,1.08848E1,3.979103E0,1.0796127E0,0E0,4.4363775E0,4.223034E0,1.0292926E1,3.3273783E0,4.3324585E0,8.3213806E-1,2.1885457E0,6.4593697E-1,5.3853865E0,2.2742286E0,3.5424843E0,4.678059E0,8.937753E0,1.0715966E0,0E0,2.1564639E0,3.9581032E0,2.5937443E0,4.375534E-1,6.487087E-1,0E0,0E0,0E0,0E0,0E0,0E0,0E0,0E0,0E0,0E0,0E0,0E0,0E0,0E0,0E0,0E0,0E0,0E0,0E0,0E0,0E0,0E0,0E0,0E0,0E0],"parents":[2147483647,0,0,1,1,2,2,3,3,4,4,5,5,9,9,10,10,11,11,12,12,14,14,15,15,16,16,17,17,18,18,19,19,20,20,21,21,22,22,23,23,24,24,25,25,26,26,27,27,29,29,30,30,31,31,32,32,33,33],"right_children":[2,4,6,8,10,12,-1,-1,-1,14,16,18,20,-1,22,24,26,28,30,32,34,36,38,40,42,44,46,48,-1,50,52,54,56,58,-1,-1,-1,-1,-1,-1,-1,-1,-1,-1,-1,-1,-1,-1,-1,-1,-1,-1,-1,-1,-1,-1,-1,-1,-1],"split_conditions":[-2.0615776E-1,-3.778641E-1,4.261736E0,1.9389217E0,-1.5240864E0,7.6761946E-2,2.1707986E-1,3.414593E-1,-2.3807947E-1,-1.6196129E0,-4.9389553E-1,-3.2835513E-1,1.1386049E0,2.4934909E-1,4.5918715E-1,-3.2934183E-1,-9.9588764E-1,3.91042E-1,-2.1989963E0,-1.7317812E0,1.2779465E0,-4.2125672E-1,2.4050635E-1,9.429681E-2,1.2260748E0,-6.4228815E-1,-4.7132468E-1,1.7194423E-1,-2.193575E-1,-2.2777812E0,5E-1,-8.559133E-1,1.9729447E0,9.940129E-1,-2.728043E-1,-3.6147746E-1,-1.9543216E-1,2.554953E-1,-2.948882E-1,6.6659525E-2,-3.013533E-1,1.3767411E-1,-1.0535971E-2,-1.2101247E-1,2.0178689E-1,-9.683935E-2,5.613615E-2,3.4298012E-1,1.202838E-2,-9.3131036E-2,3.3023477E-1,-4.9338426E-2,-2.4226263E-1,-2.5667015E-1,1.3250841E-1,-3.351986E-1,-2.1316548E-1,-6.1374422E-2,1.7309782E-1],"split_indices":[1,1,0,2,4,12,0,0,0,5,6,0,8,0,8,0,11,8,10,11,8,12,10,5,8,10,6,6,0,10,13,8,12,10,0,0,0,0,0,0,0,0,0,0,0,0,0,0,0,0,0,0,0,0,0,0,0,0,0],"split_type":[0,0,0,0,0,0,0,0,0,0,0,0,0,0,0,0,0,0,0,0,0,0,0,0,0,0,0,0,0,0,0,0,0,0,0,0,0,0,0,0,0,0,0,0,0,0,0,0,0,0,0,0,0,0,0,0,0,0,0],"sum_hessian":[8.1421124E2,6.5782135E2,1.563899E2,3.3955837E1,6.2386554E2,1.5513455E2,1.2553515E0,3.2865547E1,1.0902902E0,2.5184057E1,5.9868146E2,8.486996E1,7.026459E1,1.453569E0,2.3730488E1,1.6281328E2,4.358682E2,4.472609E0,8.039735E1,6.493027E1,5.3343205E0,1.9195282E1,4.535206E0,4.596418E0,1.5821686E2,5.4645435E1,3.8122275E2,3.0835083E0,1.3891009E0,2.67044E0,7.7726906E1,5.6390333E0,5.9291237E1,2.5055933E0,2.8287272E0,1.0683682E1,8.5116E0,2.7274566E0,1.8077492E0,2.1674187E0,2.4289994E0,1.4221771E2,1.5999152E1,5.1160793E1,3.4846425E0,3.7266354E1,3.439564E2,1.6529412E0,1.430567E0,1.4621503E0,1.2082896E0,1.1857632E1,6.586928E1,4.1691813E0,1.4698517E0,4.8847553E1,1.0443685E1,1.327016E0,1.1785773E0],"tree_param":{"num_deleted":"0","num_feature":"15","num_nodes":"59","size_leaf_vector":"0"}},{"base_weights":[-8.735046E-3,1.9503951E-1,-4.5725596E-1,9.900506E-1,1.514273E-1,-2.4083404E-1,-7.5849277E-1,8.584867E-2,1.0235741E0,-1.1188767E0,1.6517289E-1,5.1152542E-2,-3.3940297E-1,-4.9981356E-1,-9.402941E-1,3.018171E-1,5.445021E-2,3.0348223E-1,-6.05759E-1,-3.8727045E-1,6.5206695E-1,-1.8864378E-1,-8.223414E-1,-4.877842E-1,-1.0449214E0,2.1570873E-1,6.514605E-1,-4.068751E-1,1.1507202E-1,-2.096282E-1,5.256677E-1,-7.939077E-1,1.7124481E-1,-2.9439434E-1,-9.833518E-1,9.5535946E-1,-2.7799696E-1,-8.297481E-1,1.8068646E-1,-9.7101355E-1,-7.598302E-2,-7.5991124E-1,7.7098394E-3,-1.0738565E0,-1.1690793E-1,1.15407616E-1,5.721765E-1,1.0529139E0,4.8817247E-1,-5.980643E-1,6.9052047E-1,6.3430285E-1,4.5018185E-2,7.1084696E-1,-5.806049E-1,6.138181E-1,-4.1921777E-1,-1.0506829E0,2.1520913E-1,-4.7088143E-1,4.8521955E-2,1.6787533E-2,-1.0770484E0,-1.0401163E0,3.4175825E-1,8.333081E-1,-5.3495145E-1,-2.3655858E-2,-1.104904E0,-5.565127E-1,8.1655777E-1,-1.4213409E-1,-9.691472E-1,7.133475E-1,-4.8593825E-1,-1.1040025E0,-1.3581112E-1],"categories":[],"categories_nodes":[],"categories_segments":[],"categories_sizes":[],"default_left":[1,1,1,1,1,1,1,0,0,0,1,1,1,1,1,1,1,1,1,1,1,1,1,1,1,1,1,1,1,1,1,1,0,1,1,0,0,1,1,1,1,1,1,1,0,0,0,0,0,0,0,0,0,0,0,0,0,0,0,0,0,0,0,0,0,0,0,0,0,0,0,0,0,0,0,0,0],"id":5,"left_children":[1,3,5,7,9,11,13,-1,-1,-1,15,17,19,21,23,25,27,29,31,33,35,37,39,41,43,45,47,49,51,53,55,57,-1,59,61,-1,-1,63,65,67,69,71,73,75,-1,-1,-1,-1,-1,-1,-1,-1,-1,-1,-1,-1,-1,-1,-1,-1,-1,-1,-1,-1,-1,-1,-1,-1,-1,-1,-1,-1,-1,-1,-1,-1,-1],"loss_changes":[7.0693756E1,1.8291424E1,1.5569946E1,7.4508667E-1,9.009603E0,4.1063232E0,4.258877E0,0E0,0E0,0E0,7.5613623E0,6.271392E0,5.2996693E0,4.224266E0,2.2323647E0,6.6024933E0,7.818448E0,3.211125E0,1.6747301E0,5.36164E0,1.7522993E0,5.71589E0,2.2708073E0,1.7253029E0,1.1140823E0,6.412757E0,2.3547573E0,7.2310424E0,8.933865E0,3.4634256E0,1.8620167E0,2.467794E0,0E0,5.4541383E0,1.2675419E0,0E0,0E0,2.5170636E0,7.7951236E0,2.1980171E0,2.4250488E0,9.2753935E-1,2.2661958E0,1.1125984E0,0E0,0E0,0E0,0E0,0E0,0E0,0E0,0E0,0E0,0E0,0E0,0E0,0E0,0E0,0E0,0E0,0E0,0E0,0E0,0E0,0E0,0E0,0E0,0E0,0E0,0E0,0E0,0E0,0E0,0E0,0E0,0E0,0E0],"parents":[2147483647,0,0,1,1,2,2,3,3,4,4,5,5,6,6,10,10,11,11,12,12,13,13,14,14,15,15,16,16,17,17,18,18,19,19,20,20,21,21,22,22,23,23,24,24,25,25,26,26,27,27,28,28,29,29,30,30,31,31,33,33,34,34,37,37,38,38,39,39,40,40,41,41,42,42,43,43],"right_children":[2,4,6,8,10,12,14,-1,-1,-1,16,18,20,22,24,26,28,30,32,34,36,38,40,42,44,46,48,50,52,54,56,58,-1,60,62,-1,-1,64,66,68,70,72,74,76,-1,-1,-1,-1,-1,-1,-1,-1,-1,-1,-1,-1,-1,-1,-1,-1,-1,-1,-1,-1,-1,-1,-1,-1,-1,-1,-1,-1,-1,-1,-1,-1,-1],"split_conditions":[-2.9201093E-1,-3.778641E-1,-1.2030459E-1,-5.2010953E-1,-2.4079432E0,1.15E1,-3.261452E-2,2.57546E-2,3.0707225E-1,-3.3566302E-1,-4.26183E-1,6.366463E-1,4.261736E0,-2.0163357E-1,-3.445142E-2,7.6614285E-1,-3.9985037E-1,-7.261299E-2,-3.648457E-1,-2.3003271E-1,5.595113E0,3.0896124E-1,2.5337029E0,3.0360746E-1,2.792665E0,-4.7132468E-1,8.7570333E-1,7.083672E-1,-3.5094684E-1,-4.8162326E-1,1.1346748E0,1.2474337E0,5.137345E-2,-1.8918918E-1,-5.239899E-1,2.8660786E-1,-8.339909E-2,1.3186302E0,1.682612E0,-5.089427E-1,-9.026995E-1,-1.6835882E-1,9.9755585E-1,1.6152598E0,-3.5072383E-2,3.4622286E-2,1.7165296E-1,3.158742E-1,1.4645174E-1,-1.794193E-1,2.0715615E-1,1.9029087E-1,1.3505456E-2,2.132541E-1,-1.7418148E-1,1.8414544E-1,-1.2576534E-1,-3.152049E-1,6.456274E-2,-1.4126444E-1,1.4556587E-2,5.03626E-3,-3.2311454E-1,-3.120349E-1,1.0252748E-1,2.4999245E-1,-1.6048545E-1,-7.0967576E-3,-3.3147123E-1,-1.6695382E-1,2.4496734E-1,-4.2640228E-2,-2.907442E-1,2.1400426E-1,-1.4578149E-1,-3.3120075E-1,-4.0743336E-2],"split_indices":[1,1,1,9,11,14,10,0,0,0,6,12,0,12,1,10,6,10,7,0,0,1,9,6,12,6,11,10,6,8,7,8,0,6,6,0,0,8,1,6,8,8,11,0,0,0,0,0,0,0,0,0,0,0,0,0,0,0,0,0,0,0,0,0,0,0,0,0,0,0,0,0,0,0,0,0,0],"split_type":[0,0,0,0,0,0,0,0,0,0,0,0,0,0,0,0,0,0,0,0,0,0,0,0,0,0,0,0,0,0,0,0,0,0,0,0,0,0,0,0,0,0,0,0,0,0,0,0,0,0,0,0,0,0,0,0,0,0,0,0,0,0,0,0,0,0,0,0,0,0,0,0,0,0,0,0,0],"sum_hessian":[7.715029E2,5.30877E2,2.406259E2,2.6479456E1,5.0439758E2,1.4107257E2,9.955333E1,1.0739334E0,2.5405521E1,4.5388556E0,4.998587E2,3.5725494E1,1.05347084E2,4.2636482E1,5.6916843E1,2.2296681E2,2.768919E2,2.6199778E1,9.525716E0,1.0107658E2,4.270508E0,2.2506987E1,2.0129498E1,1.1751988E1,4.5164856E1,1.8020404E2,4.2762764E1,3.1496359E1,2.4539555E2,7.933905E0,1.8265873E1,7.6512403E0,1.8744752E0,8.874327E1,1.2333305E1,3.1998453E0,1.0706627E0,7.771006E0,1.4735981E1,1.6534815E1,3.5946825E0,7.241363E0,4.510625E0,4.3646812E1,1.5180422E0,1.4166641E2,3.8537632E1,1.0789049E1,3.1973717E1,2.7210703E1,4.2856574E0,2.821497E1,2.1718057E2,2.0158892E0,5.918016E0,1.70277E1,1.2381722E0,6.0664167E0,1.5848233E0,5.8342995E1,3.0400278E1,1.1267668E0,1.1206538E1,6.6830764E0,1.0879301E0,7.6213293E0,7.1146517E0,2.1932073E0,1.4341607E1,2.5813887E0,1.0132936E0,2.2569456E0,4.9844174E0,1.6734645E0,2.8371606E0,4.2116398E1,1.5304154E0],"tree_param":{"num_deleted":"0","num_feature":"15","num_nodes":"77","size_leaf_vector":"0"}},{"base_weights":[-9.341392E-3,9.8469295E-2,-5.714516E-1,9.158739E-1,6.794999E-2,-4.2500854E-1,-7.7784413E-1,1.0394732E0,-7.790809E-1,-5.482317E-1,9.112222E-2,-1.3331965E-1,-5.8768904E-1,-8.1789786E-1,4.918669E-1,1.6568172E-1,-7.869902E-1,6.7205824E-2,6.307354E-1,-2.8654927E-1,1.3021605E0,9.1071285E-2,-7.424403E-1,-9.362027E-1,-4.4431946E-1,-7.6329297E-1,5.9461045E-1,-9.763815E-1,-9.808923E-2,9.178276E-2,-8.503188E-1,-7.8779763E-1,1.0265744E0,2.3242062E-1,-7.824319E-1,7.96427E-1,-5.434421E-1,-8.29004E-1,1.3006265E-1,-2.8156623E-1,-9.897701E-1,-6.283462E-1,8.872729E-1,8.3445406E-1,-4.897076E-2,-2.3021795E-1,-1.0205976E0,5.952342E-1,-8.8188124E-1,-1.0025593E0,1.08228825E-1,-2.2378454E-1,-1.1586245E0,-1.485522E0,-3.0593112E-1,1.0934927E0,5.087322E-2,7.5967264E-1,-5.7093436E-1,2.3226641E-1,-9.9661165E-1,1.0377017E0,2.9405937E-1,5.25425E-1,-9.8504424E-1,-2.546872E-1,-9.5111245E-1,9.1260356E-1,-6.943282E-1,-8.305619E-1,6.4464843E-1,-1.0687903E0,-6.1062723E-1,-7.885588E-1,2.4235234E-1],"categories":[],"categories_nodes":[],"categories_segments":[],"categories_sizes":[],"default_left":[1,1,1,1,1,1,1,0,0,1,1,1,1,1,0,1,1,1,1,1,0,1,1,1,1,0,1,1,1,1,1,1,1,1,1,1,1,1,1,1,1,1,0,0,0,0,0,0,0,0,0,0,0,0,0,0,0,0,0,0,0,0,0,0,0,0,0,0,0,0,0,0,0,0,0],"id":6,"left_children":[1,3,5,7,9,11,13,-1,-1,15,17,19,21,23,-1,25,27,29,31,33,-1,35,37,39,41,-1,43,45,47,49,51,53,55,57,59,61,63,65,67,69,71,73,-1,-1,-1,-1,-1,-1,-1,-1,-1,-1,-1,-1,-1,-1,-1,-1,-1,-1,-1,-1,-1,-1,-1,-1,-1,-1,-1,-1,-1,-1,-1,-1,-1],"loss_changes":[4.4475616E1,1.5301632E1,3.2391014E0,5.436922E0,8.542446E0,3.304532E0,2.8339806E0,0E0,0E0,3.8291068E0,7.3665037E0,6.27196E0,4.844002E0,1.6492119E0,0E0,2.9499896E0,2.0485296E0,1.2499424E1,1.4422584E1,6.628689E0,0E0,4.609976E0,2.9128418E0,9.3413925E-1,3.777942E0,0E0,7.891526E-1,1.8666077E-1,3.0549061E0,9.779903E0,2.5352879E0,1.5141463E0,1.2103729E0,5.9450307E0,3.0653224E0,2.7974343E-1,3.1173086E0,2.1367302E0,3.3538017E0,2.5762837E0,2.9327202E-1,1.8834448E0,0E0,0E0,0E0,0E0,0E0,0E0,0E0,0E0,0E0,0E0,0E0,0E0,0E0,0E0,0E0,0E0,0E0,0E0,0E0,0E0,0E0,0E0,0E0,0E0,0E0,0E0,0E0,0E0,0E0,0E0,0E0,0E0,0E0],"parents":[2147483647,0,0,1,1,2,2,3,3,4,4,5,5,6,6,9,9,10,10,11,11,12,12,13,13,15,15,16,16,17,17,18,18,19,19,21,21,22,22,23,23,24,24,26,26,27,27,28,28,29,29,30,30,31,31,32,32,33,33,34,34,35,35,36,36,37,37,38,38,39,39,40,40,41,41],"right_children":[2,4,6,8,10,12,14,-1,-1,16,18,20,22,24,-1,26,28,30,32,34,-1,36,38,40,42,-1,44,46,48,50,52,54,56,58,60,62,64,66,68,70,72,74,-1,-1,-1,-1,-1,-1,-1,-1,-1,-1,-1,-1,-1,-1,-1,-1,-1,-1,-1,-1,-1,-1,-1,-1,-1,-1,-1,-1,-1,-1,-1,-1,-1],"split_conditions":[-2.0615776E-1,-3.778641E-1,1.3244104E-1,1.9389217E0,-1.5240864E0,-1.0653024E0,3.5103745E0,3.1184196E-1,-2.3372428E-1,-4.4123024E-1,7.0600045E-1,-1.1461072E0,5E-1,3.727343E-1,1.4756007E-1,-4.1816342E-1,4.5918715E-1,-2.2820479E-1,-2.9752535E-1,-5.2535826E-1,3.9064816E-1,1.9881152E-1,1.189965E0,-1.8719515E0,1.2647095E0,-2.289879E-1,-2.9201093E-1,-3.2048678E-1,2.4050635E-1,-1.5634191E0,-3.9008495E-1,-4.9389553E-1,6.456062E0,1.1674929E0,-3.2640702E-1,-1.013969E0,-3.4937006E-1,1.05E1,8.475162E-3,-2.0463676E0,1.9698514E0,1.443552E0,2.661819E-1,2.5033623E-1,-1.4691228E-2,-6.9065385E-2,-3.0617929E-1,1.7857027E-1,-2.645644E-1,-3.007678E-1,3.246865E-2,-6.7135364E-2,-3.4758738E-1,-4.4565663E-1,-9.177934E-2,3.2804784E-1,1.5261967E-2,2.279018E-1,-1.7128031E-1,6.967992E-2,-2.989835E-1,3.1131053E-1,8.821781E-2,1.5762751E-1,-2.9551327E-1,-7.640616E-2,-2.8533375E-1,2.737811E-1,-2.0829846E-1,-2.4916857E-1,1.9339454E-1,-3.206371E-1,-1.8318817E-1,-2.3656765E-1,7.27057E-2],"split_indices":[1,1,12,2,4,10,0,0,0,6,0,10,13,8,0,12,8,0,12,8,0,8,10,11,10,0,1,0,10,5,8,6,0,1,0,5,10,14,1,11,12,11,0,0,0,0,0,0,0,0,0,0,0,0,0,0,0,0,0,0,0,0,0,0,0,0,0,0,0,0,0,0,0,0,0],"split_type":[0,0,0,0,0,0,0,0,0,0,0,0,0,0,0,0,0,0,0,0,0,0,0,0,0,0,0,0,0,0,0,0,0,0,0,0,0,0,0,0,0,0,0,0,0,0,0,0,0,0,0,0,0,0,0,0,0,0,0,0,0,0,0,0,0,0,0,0,0,0,0,0,0,0,0],"sum_hessian":[7.3197455E2,6.148696E2,1.1710492E2,2.1086843E1,5.937828E2,7.029047E1,4.6814453E1,2.0014103E1,1.0727414E0,2.069935E1,5.7308344E2,2.5817959E1,4.4472507E1,4.5727783E1,1.0866685E0,5.264375E0,1.5434976E1,5.498384E2,2.3245045E1,2.4051025E1,1.7669339E0,8.333242E0,3.6139263E1,3.358579E1,1.2141993E1,1.4166526E0,3.8477225E0,1.1779325E1,3.655651E0,5.3637103E2,1.3467342E1,4.855309E0,1.8389736E1,1.2011546E1,1.2039479E1,3.8254783E0,4.5077643E0,3.2922752E1,3.216513E0,3.0135925E0,3.0572199E1,1.1131709E1,1.0102838E0,2.587033E0,1.2606896E0,1.006187E0,1.0773138E1,2.0674267E0,1.5882244E0,7.05362E0,5.293174E2,5.010642E0,8.4567E0,1.1325581E0,3.7227507E0,1.7096453E1,1.2932824E0,7.2848086E0,4.726737E0,2.0836296E0,9.95585E0,1.8644212E0,1.9610571E0,1.2623994E0,3.245365E0,6.3135886E0,2.6609163E1,1.5952458E0,1.6212672E0,1.9569321E0,1.0566604E0,2.379411E1,6.778088E0,9.481421E0,1.650288E0],"tree_param":{"num_deleted":"0","num_feature":"15","num_nodes":"75","size_leaf_vector":"0"}},{"base_weights":[-1.1442515E-2,1.1579004E-1,-3.2369003E-1,8.6554754E-1,8.8728465E-2,-1.7190808E-1,-5.862689E-1,9.192615E-1,1.5615506E-1,7.208016E-2,8.955549E-1,-5.4747343E-1,-1.1503419E-1,-1.8161619E-1,-7.0687956E-1,1.6486023E-1,9.61678E-1,3.8180687E-2,4.545573E-1,1.0312603E0,-1.1154061E-1,7.0799696E-1,-6.7512405E-1,-4.8037406E-2,-5.791284E-1,5.0748473E-1,-4.486598E-1,-9.9474156E-1,-3.8797027E-1,-1.6815847E-1,1.5711801E-1,6.563328E-1,-9.124384E-1,2.3021325E-1,1.126203E0,2.3357098E-1,-9.704852E-1,2.8068584E-1,-1.8508707E-1,-9.6326756E-1,-6.928044E-2,1.0016612E0,-6.656187E-1,7.1960336E-1,-6.127867E-1,-1.0404149E0,-1.6997656E-2,5.7513263E-2,-6.9833964E-1,6.2782444E-2,-2.9221347E-1,1.8790954E-1,-1.1998503E0,7.3698133E-1,-6.423945E-1,-1.5200177E0,7.451086E-1,-4.1957924E-1,8.059069E-1,-2.8656957E-1,-1.1658465E0,-1.5631106E-2,1.0682776E0,-7.5387657E-1,-8.292319E-2,-1.6006663E-1,-1.0620971E0,4.5399132E-1,-9.426266E-1,2.3366019E-1,-8.737813E-1,-1.0601146E0,-2.820995E-1,-5.152325E-1,8.3631194E-1,-7.368249E-2,-9.3307877E-1],"categories":[],"categories_nodes":[],"categories_segments":[],"categories_sizes":[],"default_left":[1,1,1,1,1,1,1,1,0,1,1,1,1,1,1,0,0,1,1,1,0,0,1,1,1,1,1,1,1,1,1,1,1,0,0,1,1,1,1,1,1,0,0,0,1,1,0,1,1,0,0,0,0,0,0,0,0,0,0,0,0,0,0,0,0,0,0,0,0,0,0,0,0,0,0,0,0],"id":7,"left_children":[1,3,5,7,9,11,13,15,-1,17,19,21,23,25,27,-1,-1,29,31,33,-1,-1,35,37,39,41,43,45,47,49,51,53,55,-1,-1,57,59,61,63,65,67,-1,-1,-1,69,71,-1,73,75,-1,-1,-1,-1,-1,-1,-1,-1,-1,-1,-1,-1,-1,-1,-1,-1,-1,-1,-1,-1,-1,-1,-1,-1,-1,-1,-1,-1],"loss_changes":[2.7966793E1,1.0072514E1,8.021231E0,5.1610374E-1,6.4354744E0,2.7256832E0,3.4946575E0,3.4987545E-1,0E0,6.144169E0,1.4401293E0,3.1871395E0,3.5370207E0,3.612075E0,4.832363E0,0E0,0E0,1.0766152E1,1.1245228E1,3.9798737E-1,0E0,0E0,4.482403E0,4.614704E0,2.7482095E0,3.916527E0,3.0842595E0,1.28792E0,3.995441E0,4.616497E0,1.184615E1,4.0571537E0,6.553613E0,0E0,0E0,2.0934749E0,1.290699E0,7.0641613E0,4.126095E0,4.745121E-1,3.7427118E0,0E0,0E0,0E0,2.9938192E0,1.1795044E-1,0E0,6.0825706E0,2.414631E0,0E0,0E0,0E0,0E0,0E0,0E0,0E0,0E0,0E0,0E0,0E0,0E0,0E0,0E0,0E0,0E0,0E0,0E0,0E0,0E0,0E0,0E0,0E0,0E0,0E0,0E0,0E0,0E0],"parents":[2147483647,0,0,1,1,2,2,3,3,4,4,5,5,6,6,7,7,9,9,10,10,11,11,12,12,13,13,14,14,17,17,18,18,19,19,22,22,23,23,24,24,25,25,26,26,27,27,28,28,29,29,30,30,31,31,32,32,35,35,36,36,37,37,38,38,39,39,40,40,44,44,45,45,47,47,48,48],"right_children":[2,4,6,8,10,12,14,16,-1,18,20,22,24,26,28,-1,-1,30,32,34,-1,-1,36,38,40,42,44,46,48,50,52,54,56,-1,-1,58,60,62,64,66,68,-1,-1,-1,70,72,-1,74,76,-1,-1,-1,-1,-1,-1,-1,-1,-1,-1,-1,-1,-1,-1,-1,-1,-1,-1,-1,-1,-1,-1,-1,-1,-1,-1,-1,-1],"split_conditions":[-2.9201093E-1,-3.778641E-1,-1.2030459E-1,1.1520617E0,2.7029595E0,-1.1429839E-1,-4.8621565E-1,-3.86625E-1,4.684652E-2,1.4396641E0,9.7154385E-1,-1.7676167E0,1.2763009E0,5E-1,2.5E1,4.945807E-2,2.885034E-1,-2.3256642E-1,-3.9960372E-1,-1.6164911E0,-3.3462185E-2,2.123991E-1,-4.9389553E-1,-5.3077734E-1,-1.9235373E-1,-4.5947347E-2,8E0,2.792665E0,-4.4875383E-1,-1.1605515E0,1.2260748E0,2.8696961E0,8.465438E-1,6.906398E-2,3.3786088E-1,8.2948506E-2,-1.6515424E0,-8.278426E-1,5.768505E-2,-2.0192895E0,2.2214627E-1,3.0049837E-1,-1.9968562E-1,2.1588102E-1,-9.932207E-1,2.1324692E0,-5.099297E-3,-4.8637187E-1,-3.445142E-2,1.8834734E-2,-8.7664045E-2,5.6372866E-2,-3.599551E-1,2.2109441E-1,-1.9271836E-1,-4.5600533E-1,2.2353259E-1,-1.2587377E-1,2.4177207E-1,-8.597087E-2,-3.4975395E-1,-4.689332E-3,3.204833E-1,-2.2616298E-1,-2.4876958E-2,-4.8019994E-2,-3.1862915E-1,1.361974E-1,-2.8278798E-1,7.009806E-2,-2.621344E-1,-3.180344E-1,-8.462985E-2,-1.5456976E-1,2.508936E-1,-2.2104748E-2,-2.7992365E-1],"split_indices":[1,1,1,11,12,9,12,11,0,8,5,9,9,13,14,0,0,12,12,5,0,0,6,11,12,10,14,12,6,12,8,8,10,0,0,12,10,11,10,11,12,0,0,0,8,0,0,6,1,0,0,0,0,0,0,0,0,0,0,0,0,0,0,0,0,0,0,0,0,0,0,0,0,0,0,0,0],"split_type":[0,0,0,0,0,0,0,0,0,0,0,0,0,0,0,0,0,0,0,0,0,0,0,0,0,0,0,0,0,0,0,0,0,0,0,0,0,0,0,0,0,0,0,0,0,0,0,0,0,0,0,0,0,0,0,0,0,0,0,0,0,0,0,0,0,0,0,0,0,0,0,0,0,0,0,0,0],"sum_hessian":[7.020125E2,4.99222E2,2.027905E2,1.6311708E1,4.8291028E2,1.2955615E2,7.323436E1,1.4888532E1,1.4231766E0,4.7421454E2,8.695751E0,1.5904576E1,1.13651566E2,1.7391407E1,5.5842953E1,1.0526837E0,1.3835849E1,4.3661646E2,3.7598083E1,7.6420026E0,1.0537488E0,1.0482689E0,1.4856308E1,1.0027879E2,1.3372772E1,4.6058135E0,1.2785593E1,2.8236343E1,2.7606607E1,1.5949744E2,2.77119E2,3.321522E1,4.382863E0,1.1726781E0,6.4693246E0,3.6956472E0,1.1160661E1,2.9197788E1,7.108101E1,7.11941E0,6.2533627E0,3.3434925E0,1.2623208E0,1.1580564E0,1.1627537E1,2.6914965E1,1.3213781E0,1.1670394E1,1.59362135E1,5.590973E1,1.0358771E2,2.718127E2,5.3062944E0,3.168046E1,1.5347615E0,3.2679548E0,1.1149083E0,1.8506194E0,1.8450278E0,3.027819E0,8.132841E0,2.1927952E1,7.269836E0,9.85195E0,6.1229057E1,1.0670416E0,6.052368E0,4.2106757E0,2.042687E0,2.7649848E0,8.862552E0,2.584556E1,1.0694044E0,6.9198275E0,4.750567E0,4.7117662E0,1.1224447E1],"tree_param":{"num_deleted":"0","num_feature":"15","num_nodes":"77","size_leaf_vector":"0"}},{"base_weights":[-1.0964575E-2,4.085995E-2,-5.087751E-1,7.985221E-1,2.2982191E-2,-2.2047248E-1,-6.72169E-1,9.721872E-1,-7.300394E-1,1.159877E-2,8.927271E-1,2.2593904E-1,-5.160936E-1,1.7343323E-1,-7.492797E-1,1.8725012E-1,-4.6843883E-2,1.223576E0,-1.5542307E-1,-3.002519E-1,1.1879909E0,3.5486844E-1,-8.0737746E-1,-2.2048485E-1,5.804026E-1,-8.307796E-1,-1.7337242E-1,4.1091007E-1,-2.1928363E-1,-3.988504E-1,8.592331E-3,4.8925576E-1,-5.533214E-1,1.4572781E0,2.9890126E-1,8.992925E-1,-6.1361533E-1,-1.0197612E0,1.6146377E-1,-1.8813409E-1,-8.892345E-1,8.5267556E-1,-5.7159245E-1,9.1804445E-2,6.507498E-1,6.6465867E-1,-4.8141173E-1,-4.9620813E-1,4.5494637E-1,-7.2261944E-2,3.0630684E-1,-8.4717554E-1,-5.50733E-2,1.797762E-1,1.2671262E0,-6.660333E-1,2.955423E-1,-9.555342E-1,-2.9874006E-1,1.6530716E-1,-8.0963343E-1],"categories":[],"categories_nodes":[],"categories_segments":[],"categories_sizes":[],"default_left":[1,1,1,1,1,1,1,0,0,1,1,1,1,1,1,1,1,0,0,1,1,1,1,0,0,1,1,1,1,1,1,0,1,0,0,1,0,0,0,1,1,0,1,0,0,0,0,0,0,0,0,0,0,0,0,0,0,0,0,0,0],"id":8,"left_children":[1,3,5,7,9,11,13,-1,-1,15,17,19,21,23,25,27,29,-1,-1,31,33,35,37,-1,-1,39,41,43,45,47,49,-1,51,-1,-1,53,-1,-1,-1,55,57,-1,59,-1,-1,-1,-1,-1,-1,-1,-1,-1,-1,-1,-1,-1,-1,-1,-1,-1,-1],"loss_changes":[1.7568987E1,8.3389E0,2.8764992E0,4.4774094E0,5.967595E0,3.3781748E0,2.7703915E0,0E0,0E0,6.1373444E0,2.8906503E0,5.693149E0,4.1358657E0,8.0066437E-1,1.6066132E0,1.3660268E1,8.760485E0,0E0,0E0,1.7917507E0,5.0508404E-1,2.9231226E0,2.5671115E0,0E0,0E0,1.0502357E0,2.893039E0,7.3353767E0,1.2744089E1,5.302849E0,9.378263E0,0E0,8.661016E-1,0E0,0E0,6.414993E-1,0E0,0E0,0E0,1.1146412E0,8.671112E-1,0E0,9.8286355E-1,0E0,0E0,0E0,0E0,0E0,0E0,0E0,0E0,0E0,0E0,0E0,0E0,0E0,0E0,0E0,0E0,0E0,0E0],"parents":[2147483647,0,0,1,1,2,2,3,3,4,4,5,5,6,6,9,9,10,10,11,11,12,12,13,13,14,14,15,15,16,16,19,19,20,20,21,21,22,22,25,25,26,26,27,27,28,28,29,29,30,30,32,32,35,35,39,39,40,40,42,42],"right_children":[2,4,6,8,10,12,14,-1,-1,16,18,20,22,24,26,28,30,-1,-1,32,34,36,38,-1,-1,40,42,44,46,48,50,-1,52,-1,-1,54,-1,-1,-1,56,58,-1,60,-1,-1,-1,-1,-1,-1,-1,-1,-1,-1,-1,-1,-1,-1,-1,-1,-1,-1],"split_conditions":[-1.2030459E-1,-3.778641E-1,-9.921738E-1,1.9389217E0,1.6618662E0,-4.44992E-1,-1.0584731E0,2.9165617E-1,-2.1901183E-1,1.35E1,-4.256832E-1,-4.7132468E-1,-5.604545E-1,4.582758E-1,1.9729447E0,3.564608E-1,2.5E1,3.670728E-1,-4.6626925E-2,-5.239899E-1,4.824074E-1,9.429681E-2,2.5337029E0,-6.614546E-2,1.7412078E-1,-5.315136E-1,2.1059558E0,3.7469532E-2,-1.1388984E0,7.3888755E-1,-2.3056905E-1,1.4677674E-1,-4.5212758E-1,4.3718347E-1,8.967038E-2,-1.2889707E0,-1.8408461E-1,-3.0592838E-1,4.8439134E-2,2.2310808E-1,2.8E1,2.558027E-1,-7.2051275E-1,2.7541334E-2,1.9522496E-1,1.9939761E-1,-1.4442353E-1,-1.4886245E-1,1.3648392E-1,-2.1678584E-2,9.1892056E-2,-2.541527E-1,-1.652199E-2,5.3932864E-2,3.801379E-1,-1.9981001E-1,8.866269E-2,-2.8666028E-1,-8.962202E-2,4.9592152E-2,-2.4289005E-1],"split_indices":[1,1,10,2,10,6,12,0,0,14,8,6,12,10,12,8,14,0,0,6,9,5,9,0,0,6,12,11,12,8,6,0,8,0,0,11,0,0,0,1,14,0,5,0,0,0,0,0,0,0,0,0,0,0,0,0,0,0,0,0,0],"split_type":[0,0,0,0,0,0,0,0,0,0,0,0,0,0,0,0,0,0,0,0,0,0,0,0,0,0,0,0,0,0,0,0,0,0,0,0,0,0,0,0,0,0,0,0,0,0,0,0,0,0,0,0,0,0,0,0,0,0,0,0,0],"sum_hessian":[6.791945E2,6.1598535E2,6.320918E1,1.3193121E1,6.0279224E2,2.3714725E1,3.9494453E1,1.2173979E1,1.0191419E0,5.960049E2,6.7873135E0,9.541704E0,1.4173022E1,3.1961415E0,3.629831E1,1.4824515E2,4.4775977E2,5.031692E0,1.7556218E0,6.6127744E0,2.9289293E0,3.4973564E0,1.0675666E1,1.8569603E0,1.3391812E0,3.141065E1,4.8876605E0,9.5625015E1,5.262014E1,6.0078854E1,3.876809E2,1.3786083E0,5.234166E0,1.7575388E0,1.1713907E0,2.284557E0,1.2127994E0,8.713078E0,1.9625884E0,2.970607E0,2.8440042E1,1.0474916E0,3.8401692E0,4.1625393E1,5.399962E1,1.1684E1,4.093614E1,5.430529E1,5.773564E0,3.05476E2,8.2204895E1,2.851887E0,2.3822792E0,1.2764492E0,1.0081079E0,1.3045834E0,1.6660236E0,2.5013388E1,3.4266548E0,1.0122173E0,2.827952E0],"tree_param":{"num_deleted":"0","num_feature":"15","num_nodes":"61","size_leaf_vector":"0"}},{"base_weights":[-7.121156E-3,7.668886E-2,-2.3033112E-1,2.501935E-1,1.2425986E-2,-1.5112486E-1,-4.6736488E-1,-3.3896402E-1,2.8676745E-1,-6.7245376E-1,3.4540884E-2,-4.126031E-1,-7.47943E-2,-1.6395614E-1,-8.362801E-1,-8.9733493E-1,3.1078088E-1,2.4800621E-1,9.9459547E-1,-1.2835056E0,5.192838E-1,7.3908037E-1,6.7877807E-3,-7.9330814E-1,2.0183241E-1,-5.535773E-1,-2.8160186E-2,2.4119392E-2,-8.831683E-1,-8.969469E-1,1.14917204E-1,-1.2387956E0,4.9567986E-2,8.8775676E-1,-2.9988876E-1,-1.4761537E-1,3.355602E-1,1.120353E0,2.52996E-1,-1.4150219E0,-2.1859373E-1,-5.57069E-1,1.08009E0,1.0825177E0,1.4655197E-1,-3.8363445E-1,5.2074287E-2,-9.5914876E-1,6.172618E-1,5.4354376E-1,-7.6370484E-1,3.664318E-1,-8.991017E-1,5.295468E-1,-1.2603205E-1,4.751234E-1,-2.8286958E-1,-3.4887153E-1,-9.5200425E-1,-1.4061524E0,1.393453E-1,4.0442863E-1,-8.9400107E-1,1.1874511E0,2.9793534E-1,6.0435575E-1,-3.1558603E-1,-2.4751125E-1,-1.5593898E0,5.838361E-1,2.3189727E-3,4.0282947E-1,-1.0658705E0,1.7984307E-1,1.2032969E0,-1.0173405E0,-9.4358206E-2,5.154325E-1,2.5646955E-2,3.336127E-2,1.1657387E0,4.0946537E-1,-2.2442241E-1,-3.9211094E-1,7.3735785E-1,-5.560105E-1,4.3042338E-1,-6.5657026E-1,1.7409891E-1,-9.9064815E-1,-1.7644492E-1],"categories":[],"categories_nodes":[],"categories_segments":[],"categories_sizes":[],"default_left":[1,1,1,1,1,1,1,1,1,1,1,1,1,1,1,1,1,1,1,1,1,1,1,1,1,1,1,1,0,1,0,0,0,0,0,1,1,0,0,0,0,0,0,1,1,1,1,1,0,1,1,1,0,1,1,1,1,1,1,0,0,0,0,0,0,0,0,0,0,0,0,0,0,0,0,0,0,0,0,0,0,0,0,0,0,0,0,0,0,0,0],"id":9,"left_children":[1,3,5,7,9,11,13,15,17,19,21,23,25,27,29,31,33,35,37,39,41,43,45,47,49,51,53,55,-1,57,-1,-1,-1,-1,-1,59,61,-1,-1,-1,-1,-1,-1,63,65,67,69,71,-1,73,75,77,-1,79,81,83,85,87,89,-1,-1,-1,-1,-1,-1,-1,-1,-1,-1,-1,-1,-1,-1,-1,-1,-1,-1,-1,-1,-1,-1,-1,-1,-1,-1,-1,-1,-1,-1,-1,-1],"loss_changes":[1.2400255E1,5.37088E0,3.3264122E0,2.903039E0,5.3661723E0,2.7054522E0,4.881974E0,3.2064092E0,3.131979E0,8.737509E0,6.6954293E0,7.3547535E0,2.3810842E0,3.5177383E0,1.2567301E0,1.5477703E0,1.8419901E0,4.1397495E0,2.8183603E-1,7.571459E-1,3.299055E0,2.482307E0,5.867048E0,5.081932E0,4.5603137E0,3.3409848E0,5.463309E0,3.1061196E0,0E0,2.3839664E-1,0E0,0E0,0E0,0E0,0E0,8.174445E0,8.574637E0,0E0,0E0,0E0,0E0,0E0,0E0,3.0972672E-1,1.4429156E0,5.1343517E0,7.8621907E0,2.982586E0,0E0,2.1504393E0,5.3214025E-1,1.541931E-1,0E0,4.681077E0,4.5658917E0,2.3509133E0,2.8495831E0,6.46036E-1,3.22793E-1,0E0,0E0,0E0,0E0,0E0,0E0,0E0,0E0,0E0,0E0,0E0,0E0,0E0,0E0,0E0,0E0,0E0,0E0,0E0,0E0,0E0,0E0,0E0,0E0,0E0,0E0,0E0,0E0,0E0,0E0,0E0,0E0],"parents":[2147483647,0,0,1,1,2,2,3,3,4,4,5,5,6,6,7,7,8,8,9,9,10,10,11,11,12,12,13,13,14,14,15,15,16,16,17,17,18,18,19,19,20,20,21,21,22,22,23,23,24,24,25,25,26,26,27,27,29,29,35,35,36,36,43,43,44,44,45,45,46,46,47,47,49,49,50,50,51,51,53,53,54,54,55,55,56,56,57,57,58,58],"right_children":[2,4,6,8,10,12,14,16,18,20,22,24,26,28,30,32,34,36,38,40,42,44,46,48,50,52,54,56,-1,58,-1,-1,-1,-1,-1,60,62,-1,-1,-1,-1,-1,-1,64,66,68,70,72,-1,74,76,78,-1,80,82,84,86,88,90,-1,-1,-1,-1,-1,-1,-1,-1,-1,-1,-1,-1,-1,-1,-1,-1,-1,-1,-1,-1,-1,-1,-1,-1,-1,-1,-1,-1,-1,-1,-1,-1],"split_conditions":[-2.9201093E-1,-4.9389553E-1,-3.445142E-2,-2.6539588E-1,-1.597186E0,-1.3008488E0,2.273573E-2,5.242811E-1,7.42249E-1,1.4097396E0,-1.4926131E0,-1.8918918E-1,-1.5240864E0,1.3553432E-1,2.792665E0,3.3141196E-1,9.429681E-2,-5.728276E-1,-4.2732573E-1,1.5100074E-1,-4.2365044E-1,-4.0527397E-1,-4.7132468E-1,-3.4279394E-1,-1.5529604E0,5E-1,-4.9993092E-1,-4.6380106E-1,-2.6495048E-1,-5.315136E-1,3.4475163E-2,-3.7163872E-1,1.4870397E-2,2.6632705E-1,-8.996663E-2,-5.315136E-1,1.2260748E0,3.361059E-1,7.5898804E-2,-4.2450657E-1,-6.5578125E-2,-1.6712071E-1,3.2402703E-1,2.3775887E0,-3.697559E-1,7.6266956E-1,-4.3370658E-1,-1.4791285E0,1.8517855E-1,5.995459E-1,-1.4353892E0,3.91042E-1,-2.697305E-1,-6.3317E-1,-5.88294E-1,-7.7670646E-1,-1.07095055E-2,7.221041E-1,1.58104E0,-4.2184573E-1,4.180359E-2,1.2132859E-1,-2.6820034E-1,3.5623536E-1,8.938061E-2,1.8130673E-1,-9.467582E-2,-7.425338E-2,-4.6781698E-1,1.7515083E-1,6.9569185E-4,1.2084884E-1,-3.1976116E-1,5.395292E-2,3.609891E-1,-3.052022E-1,-2.8307462E-2,1.5462975E-1,7.6940865E-3,1.0008382E-2,3.497216E-1,1.22839615E-1,-6.7326725E-2,-1.1763329E-1,2.2120737E-1,-1.6680315E-1,1.2912703E-1,-1.9697109E-1,5.2229676E-2,-2.9719445E-1,-5.2933477E-2],"split_indices":[1,6,1,0,11,10,11,8,9,9,8,6,4,12,12,10,5,12,7,12,7,7,6,7,10,13,8,6,0,6,0,0,0,0,0,6,8,0,0,0,0,0,0,0,6,9,6,5,0,8,10,8,0,8,12,5,8,10,8,0,0,0,0,0,0,0,0,0,0,0,0,0,0,0,0,0,0,0,0,0,0,0,0,0,0,0,0,0,0,0,0],"split_type":[0,0,0,0,0,0,0,0,0,0,0,0,0,0,0,0,0,0,0,0,0,0,0,0,0,0,0,0,0,0,0,0,0,0,0,0,0,0,0,0,0,0,0,0,0,0,0,0,0,0,0,0,0,0,0,0,0,0,0,0,0,0,0,0,0,0,0,0,0,0,0,0,0,0,0,0,0,0,0,0,0,0,0,0,0,0,0,0,0,0,0],"sum_hessian":[6.6091473E2,4.809761E2,1.7993863E2,1.2921436E2,3.5176175E2,1.3609818E2,4.3840458E1,7.0693088E0,1.2214504E2,1.0083297E1,3.4167847E2,2.9757004E1,1.0634116E2,2.484856E1,1.8991896E1,3.5970535E0,3.4722552E0,1.1708381E2,5.0612297E0,6.61468E0,3.4686162E0,1.1977878E1,3.297006E2,1.8193296E1,1.1563707E1,8.473615E0,9.786755E1,2.0463718E1,4.3848424E0,1.7906841E1,1.0850545E0,2.4171498E0,1.1799039E0,1.552074E0,1.9201813E0,2.1091904E1,9.5991905E1,3.89073E0,1.1704999E0,5.594938E0,1.0197423E0,1.1904519E0,2.2781644E0,7.059278E0,4.918599E0,3.3491734E1,2.9620886E2,1.6565695E1,1.6276003E0,8.863795E0,2.6999123E0,2.2970018E0,6.1766133E0,1.3952258E1,8.391529E1,8.066039E0,1.2397679E1,2.3043547E0,1.5602487E1,3.192082E0,1.7899822E1,9.1536E1,4.4559054E0,5.7736096E0,1.2856686E0,2.316292E0,2.602307E0,3.1101469E1,2.390263E0,2.4425566E1,2.717833E2,1.0021194E0,1.5563577E1,6.53426E0,2.3295355E0,1.5809438E0,1.1189684E0,1.2416369E0,1.0553648E0,8.429934E0,5.522324E0,1.2534365E1,7.138093E1,1.757744E0,6.3082952E0,9.12424E0,3.2734387E0,1.2899355E0,1.0144193E0,1.4597787E1,1.0047004E0],"tree_param":{"num_deleted":"0","num_feature":"15","num_nodes":"91","size_leaf_vector":"0"}},{"base_weights":[-7.4291704E-3,3.2045066E-2,-2.971013E-1,7.21785E-1,1.8831437E-2,2.7037266E-1,-3.3291817E-1,8.035805E-1,4.0268744E-3,9.537521E-3,7.892039E-1,5.990702E-1,-5.398302E-1,-3.5162526E-1,4.868313E-1,8.746945E-1,1.6773675E-1,1.8749525E-3,8.5159963E-1,1.1137766E0,-1.274791E-1,-6.0793024E-2,8.8593125E-1,-2.7077332E-1,-6.517355E-1,1.3990687E-1,-4.5212347E-2,1.5299134E-1,9.986264E-1,-3.358592E-1,4.5643872E-1,-8.639575E-1,1.4190631E-2,3.6578366E-1,5.1946003E-2,-1.9841777E-2,-6.3171977E-1,3.9692125E-3,-4.162606E-1,-6.073279E-1,9.423039E-1,-9.835191E-1,1.5817666E-1,-7.009818E-1,6.761189E-1],"categories":[],"categories_nodes":[],"categories_segments":[],"categories_sizes":[],"default_left":[1,1,1,1,1,1,1,1,0,1,1,1,0,1,0,0,0,1,1,0,0,0,0,1,1,1,1,0,0,1,1,1,1,0,0,0,0,0,0,0,0,0,0,0,0],"id":10,"left_children":[1,3,5,7,9,11,13,15,-1,17,19,21,-1,23,-1,-1,-1,25,27,-1,-1,-1,-1,29,31,33,35,-1,-1,37,39,41,43,-1,-1,-1,-1,-1,-1,-1,-1,-1,-1,-1,-1],"loss_changes":[7.357565E0,5.1490135E0,1.6584158E0,6.2031317E-1,3.9792452E0,1.6904008E0,1.2911463E0,2.841754E-1,0E0,3.554967E0,2.1132345E0,8.347956E-1,0E0,1.5701771E0,0E0,0E0,0E0,3.5631087E0,3.5754204E-1,0E0,0E0,0E0,0E0,2.9182658E0,2.0708475E0,2.7514396E0,6.0703487E0,0E0,0E0,1.4823918E0,3.2716718E0,1.507473E0,2.6061592E0,0E0,0E0,0E0,0E0,0E0,0E0,0E0,0E0,0E0,0E0,0E0,0E0],"parents":[2147483647,0,0,1,1,2,2,3,3,4,4,5,5,6,6,7,7,9,9,10,10,11,11,13,13,17,17,18,18,23,23,24,24,25,25,26,26,29,29,30,30,31,31,32,32],"right_children":[2,4,6,8,10,12,14,16,-1,18,20,22,-1,24,-1,-1,-1,26,28,-1,-1,-1,-1,30,32,34,36,-1,-1,38,40,42,44,-1,-1,-1,-1,-1,-1,-1,-1,-1,-1,-1,-1],"split_conditions":[-2.0615776E-1,-3.778641E-1,-3.2860813E-1,1.1520617E0,1.6618662E0,2.2737552E-1,3.8549488E0,-3.4279394E-1,1.2080624E-3,1.5821294E0,-4.256832E-1,-3.299364E-1,-1.6194907E-1,1.1663972E0,1.460494E-1,2.6240838E-1,5.0321028E-2,-4.9389553E-1,-4.7508645E-1,3.3413297E-1,-3.8243733E-2,-1.8237907E-2,2.6577938E-1,1.1220888E0,1.443552E0,-2.7341342E-1,1.3798382E0,4.5897402E-2,2.9958794E-1,-1.2325003E0,9.429681E-2,2.5018961E0,1.1996304E0,1.097351E-1,1.5583801E-2,-5.9525333E-3,-1.8951593E-1,1.1907638E-3,-1.2487818E-1,-1.8219838E-1,2.8269118E-1,-2.9505575E-1,4.7453E-2,-2.1029454E-1,2.0283568E-1],"split_indices":[1,1,0,11,10,10,0,7,0,11,8,0,0,11,0,0,0,6,6,0,0,0,0,10,11,10,11,0,0,5,5,12,8,0,0,0,0,0,0,0,0,0,0,0,0],"split_type":[0,0,0,0,0,0,0,0,0,0,0,0,0,0,0,0,0,0,0,0,0,0,0,0,0,0,0,0,0,0,0,0,0,0,0,0,0,0,0,0,0,0,0,0,0],"sum_hessian":[6.4161566E2,5.6545E2,7.6165695E1,9.62094E0,5.5582904E2,4.1331015E0,7.203259E1,8.529366E0,1.0915747E0,5.502037E2,5.6253796E0,3.1256318E0,1.0074695E0,7.0983765E1,1.0488269E0,7.3335257E0,1.1958395E0,5.462353E2,3.9683867E0,3.995628E0,1.6297516E0,1.185868E0,1.9397637E0,5.7417347E1,1.3566421E1,1.3844011E2,4.0779517E2,1.04475E0,2.9236367E0,5.3194557E1,4.22279E0,1.0062314E1,3.5041072E0,3.7916065E1,1.0052405E2,3.9187753E2,1.5917628E1,1.0359446E1,4.283511E1,1.2456146E0,2.9771752E0,9.042382E0,1.0199311E0,1.6559532E0,1.8481541E0],"tree_param":{"num_deleted":"0","num_feature":"15","num_nodes":"45","size_leaf_vector":"0"}},{"base_weights":[-4.231721E-3,4.8484698E-2,-1.5319097E-1,6.646258E-1,3.6746938E-2,-4.7582024E-1,-1.0149444E-1,-1.2235459E-2,9.924873E-1,-1.1740423E0,5.3962767E-2,-2.4754548E-1,-1.0207039E0,-5.2378867E-2,-4.3576166E-1,5.877844E-1,-6.501444E-1,1.2371081E0,-1.1214139E-2,-4.9118367E-1,-1.4695734E0,4.923588E-1,3.2737575E-2,8.384128E-1,-4.0139323E-1,-4.9512702E-1,-4.1404786E-3,-5.44713E-1,4.0052953E-1,-8.0730844E-1,6.1059374E-2,7.318192E-1,-5.5251443E-1,-8.510771E-3,2.918304E-1,-6.007613E-1,3.305245E-1,1.5015933E-1,-7.449892E-1,-6.705955E-2,5.200124E-1,3.2776866E-2,-8.1446147E-1,3.281952E-1,1.0434626E0,-8.009353E-2,-8.882589E-1,6.1864957E-2,-3.5565045E-1,6.9531107E-1,5.5803925E-2,-9.788306E-1,-1.14459105E-1,-2.5641203E-1,7.3228633E-1,-2.8324538E-1,6.304119E-1,1.6282283E-1,-8.772403E-1,-1.00951076E-1,6.9729316E-1,8.712273E-1,-4.368343E-1,5.531458E-1,-7.816781E-1,-9.165213E-1,1.08730726E-1],"categories":[],"categories_nodes":[],"categories_segments":[],"categories_sizes":[],"default_left":[1,1,1,1,1,1,1,1,1,1,1,1,0,1,1,0,0,0,0,1,0,1,1,0,1,1,1,1,0,0,0,1,1,1,1,1,1,1,1,1,1,1,1,0,0,0,0,0,0,0,0,0,0,0,0,0,0,0,0,0,0,0,0,0,0,0,0],"id":11,"left_children":[1,3,5,7,9,11,13,15,17,19,21,23,-1,25,27,-1,-1,-1,-1,29,-1,31,33,-1,35,37,39,41,-1,-1,-1,43,45,47,49,51,53,55,57,59,61,63,65,-1,-1,-1,-1,-1,-1,-1,-1,-1,-1,-1,-1,-1,-1,-1,-1,-1,-1,-1,-1,-1,-1,-1,-1],"loss_changes":[4.9850035E0,3.3670464E0,2.7192335E0,1.9446144E0,9.677732E0,2.5639658E0,2.3460202E0,1.8478969E0,1.4572325E0,5.919647E-1,4.2244434E0,3.2233953E0,0E0,2.7090194E0,1.8899512E0,0E0,0E0,0E0,0E0,6.548151E-1,0E0,5.652193E0,4.659444E0,0E0,2.505753E0,2.121301E0,3.843143E0,2.6214533E0,0E0,0E0,0E0,1.8580256E0,6.395006E-1,9.229242E0,5.6631227E0,2.2378774E0,1.1380578E0,1.0758742E0,1.2416053E0,2.7641249E0,4.578017E0,3.0874355E0,1.1730418E0,0E0,0E0,0E0,0E0,0E0,0E0,0E0,0E0,0E0,0E0,0E0,0E0,0E0,0E0,0E0,0E0,0E0,0E0,0E0,0E0,0E0,0E0,0E0,0E0],"parents":[2147483647,0,0,1,1,2,2,3,3,4,4,5,5,6,6,7,7,8,8,9,9,10,10,11,11,13,13,14,14,19,19,21,21,22,22,24,24,25,25,26,26,27,27,31,31,32,32,33,33,34,34,35,35,36,36,37,37,38,38,39,39,40,40,41,41,42,42],"right_children":[2,4,6,8,10,12,14,16,18,20,22,24,-1,26,28,-1,-1,-1,-1,30,-1,32,34,-1,36,38,40,42,-1,-1,-1,44,46,48,50,52,54,56,58,60,62,64,66,-1,-1,-1,-1,-1,-1,-1,-1,-1,-1,-1,-1,-1,-1,-1,-1,-1,-1,-1,-1,-1,-1,-1,-1],"split_conditions":[-2.9201093E-1,-1.7420888E0,-1.1429839E-1,-1.7853947E0,-1.6709433E0,-5.9683496E-1,-3.8405977E-2,-2.5690168E-1,1.0453413E0,-2.5379458E-1,-1.4760664E0,-1.566922E0,-3.0621117E-1,-1.5240864E0,1.2576046E0,1.7633533E-1,-1.9504333E-1,3.7113243E-1,-3.364242E-3,-1.7173424E0,-4.4087204E-1,9.63711E-1,8.287667E-1,2.5152385E-1,2.75E1,5E-1,-3.611704E-1,-2.5223985E-1,1.20158866E-1,-2.4219254E-1,1.8317813E-2,4.4393077E-1,1.2028937E0,9.1421135E-2,-4.256832E-1,-6.862238E-2,-1.4831221E0,2.1343666E-1,-9.935141E-1,7.085304E-1,3.9511037E-1,-5.3858245E-4,6.4734924E-1,9.8458566E-2,3.130388E-1,-2.4028061E-2,-2.6647767E-1,1.8559488E-2,-1.0669514E-1,2.0859332E-1,1.6741179E-2,-2.936492E-1,-3.4337733E-2,-7.692361E-2,2.1968591E-1,-8.497362E-2,1.8912359E-1,4.8846852E-2,-2.631721E-1,-3.0285323E-2,2.0918795E-1,2.6136822E-1,-1.310503E-1,1.6594376E-1,-2.3450343E-1,-2.749564E-1,3.261922E-2],"split_indices":[1,12,9,12,12,9,7,6,11,8,12,11,0,4,8,0,0,0,0,12,0,10,10,0,14,13,7,0,0,0,0,8,10,10,8,12,9,10,12,0,8,8,8,0,0,0,0,0,0,0,0,0,0,0,0,0,0,0,0,0,0,0,0,0,0,0,0],"split_type":[0,0,0,0,0,0,0,0,0,0,0,0,0,0,0,0,0,0,0,0,0,0,0,0,0,0,0,0,0,0,0,0,0,0,0,0,0,0,0,0,0,0,0,0,0,0,0,0,0,0,0,0,0,0,0,0,0,0,0,0,0,0,0,0,0,0,0],"sum_hessian":[6.3287634E2,4.6794568E2,1.6493066E2,7.708088E0,4.602376E2,2.164483E1,1.4328583E2,2.8294487E0,4.878639E0,5.5101924E0,4.5472742E2,1.6279125E1,5.3657045E0,1.2593785E2,1.7347984E1,1.4985152E0,1.3309333E0,3.7356467E0,1.1429926E0,2.4684923E0,3.0417004E0,1.9974148E1,4.3475327E2,1.4679248E0,1.4811201E1,1.1462942E1,1.1447491E2,1.5656876E1,1.691109E0,1.276121E0,1.1923714E0,1.6493773E1,3.4803755E0,3.758793E2,5.8873955E1,1.1781279E1,3.029923E0,3.3110247E0,8.151917E0,1.02984726E2,1.1490179E1,5.2646217E0,1.0392254E1,8.0809145E0,8.412859E0,1.9604337E0,1.5199418E0,3.1320496E2,6.267435E1,2.1010754E1,3.78632E1,6.0584292E0,5.7228494E0,1.3782334E0,1.6516894E0,1.9560238E0,1.355001E0,1.0071775E0,7.14474E0,9.944332E1,3.541407E0,8.470518E0,3.0196614E0,3.4080198E0,1.8566018E0,9.364252E0,1.0280021E0],"tree_param":{"num_deleted":"0","num_feature":"15","num_nodes":"67","size_leaf_vector":"0"}},{"base_weights":[-3.7794495E-3,3.951646E-3,-9.8137575E-1,8.9673257E-1,-7.4023255E-3,-1.320947E-2,1.0427177E0,-2.4822963E-2,4.8029304E-1,1.5788813E-5,-4.4435138E-1,9.6777064E-1,-5.7521343E-1,-6.623699E-1,1.3237982E-2,2.5138444E-1,-8.1631386E-1,9.209385E-2,1.0572081E0,-1.0613226E0,6.732598E-1],"categories":[],"categories_nodes":[],"categories_segments":[],"categories_sizes":[],"default_left":[1,1,0,0,1,1,0,1,1,1,1,1,1,0,0,0,0,0,0,0,0],"id":12,"left_children":[1,3,-1,-1,5,7,-1,9,11,13,15,17,19,-1,-1,-1,-1,-1,-1,-1,-1],"loss_changes":[4.717851E0,6.2894864E0,0E0,0E0,3.7521274E0,3.5116873E0,0E0,6.2268457E0,7.8058977E0,4.958475E0,8.849079E0,6.8664646E-1,3.796552E0,0E0,0E0,0E0,0E0,0E0,0E0,0E0,0E0],"parents":[2147483647,0,0,1,1,4,4,5,5,7,7,8,8,9,9,10,10,11,11,12,12],"right_children":[2,4,-1,-1,6,8,-1,10,12,14,16,18,20,-1,-1,-1,-1,-1,-1,-1,-1],"split_conditions":[1.160666E-2,-3.778641E-1,-2.9441273E-1,2.6901978E-1,1.6968141E0,4.0027647E0,3.128153E-1,-2.2886258E-1,6.154131E0,-1.5634191E0,-4.4123024E-1,6.575897E-3,3.8103044E-2,-1.9871098E-1,3.9713946E-3,7.5415336E-2,-2.4489416E-1,2.7628155E-2,3.1716242E-1,-3.1839678E-1,2.0197795E-1],"split_indices":[2,1,0,0,11,0,0,0,0,5,6,10,5,0,0,0,0,0,0,0,0],"split_type":[0,0,0,0,0,0,0,0,0,0,0,0,0,0,0,0,0,0,0,0,0],"sum_hessian":[6.227154E2,6.188176E2,3.8978188E0,6.7917504E0,6.120259E2,6.0964197E2,2.3838878E0,5.965531E2,1.3088861E1,5.641517E2,3.240141E1,9.010536E0,4.0783253E0,1.00800705E1,5.540716E2,1.1400867E1,2.100054E1,1.0231022E0,7.9874334E0,3.0432863E0,1.0350391E0],"tree_param":{"num_deleted":"0","num_feature":"15","num_nodes":"21","size_leaf_vector":"0"}},{"base_weights":[-2.214945E-3,3.8644245E-3,-8.508991E-1,8.5871005E-1,-4.944618E-3,6.77202E-4,-8.1195617E-1,-4.028352E-3,9.3339705E-1,5.006388E-2,-8.138047E-2,-2.9849997E-1,9.394863E-2,2.598576E-1,-1.5876551E-1],"categories":[],"categories_nodes":[],"categories_segments":[],"categories_sizes":[],"default_left":[1,1,0,0,1,1,0,1,0,1,1,0,0,0,0],"id":13,"left_children":[1,3,-1,-1,5,7,-1,9,-1,11,13,-1,-1,-1,-1],"loss_changes":[3.1838615E0,4.6208553E0,0E0,0E0,2.758091E0,2.657331E0,0E0,2.5252817E0,0E0,5.4616156E0,6.599316E0,0E0,0E0,0E0,0E0],"parents":[2147483647,0,0,1,1,4,4,5,5,7,7,9,9,10,10],"right_children":[2,4,-1,-1,6,8,-1,10,-1,12,14,-1,-1,-1,-1],"split_conditions":[1.160666E-2,-3.778641E-1,-2.5526974E-1,2.5761303E-1,2.7128499E0,1.6968141E0,-2.4358685E-1,5.5639716E-3,2.8001913E-1,-8.883425E-1,-1.1605515E0,-8.9549996E-2,2.818459E-2,7.795728E-2,-4.7629654E-2],"split_indices":[2,1,0,0,1,11,0,8,0,12,12,0,0,0,0],"split_type":[0,0,0,0,0,0,0,0,0,0,0,0,0,0,0],"sum_hessian":[6.154542E2,6.1206525E2,3.3889534E0,5.258824E0,6.0680646E2,6.0360077E2,3.205655E0,6.015616E2,2.0391858E0,3.5421344E2,2.4734816E2,3.8960403E1,3.1525302E2,4.528793E1,2.0206023E2],"tree_param":{"num_deleted":"0","num_feature":"15","num_nodes":"15","size_leaf_vector":"0"}},{"base_weights":[-1.2951936E-3,1.7221382E-2,-2.475325E-1,-2.2843407E-2,1.4976224E-1,-9.64995E-3,-4.374364E-1,1.251259E-2,-8.476781E-1,4.1652927E-1,-2.3603017E-2,-5.682566E-1,2.8772274E-1,-7.743423E-1,-1.5014297E-1,-1.6291348E-2,3.5223237E-1,-1.0545328E0,3.0157572E-1,-1.0569727E0,4.7994444E-1,4.3705374E-1,-1.2114867E-1,-8.8415974E-1,3.166591E-1,4.8738572E-1,-6.822908E-1,4.6808305E-3,-9.308694E-1,-3.5539478E-1,7.982052E-1,-3.236882E-2,6.9273204E-1,4.922556E-1,-8.6676884E-1,-1.6846071E-3,-1.1519384E0,-5.4477745E-1,8.643372E-1,2.3961559E-1,7.657263E-1,-4.8003456E-1,6.602662E-1,-2.4261095E-2,-9.467291E-1,8.987958E-1,5.4971814E-2,6.3709505E-2,-6.3554484E-1,-4.3101564E-1,7.4806716E-3,1.7489079E-1,1.1206841E0,5.609567E-1,-6.082761E-1,1.2122199E-1,-1.4509255E0,-7.965615E-2,-1.2686275E0,3.9438662E-1,-6.2171274E-1,1.2726762E0,3.8543406E-1,-7.03204E-1,-8.7018665E-3,1.0038921E-1,7.791967E-1,2.67118E-1,-2.8855082E-1,-1.4393746E-2,-1.2532935E0,-3.78428E-2,1.1423457E0,5.76594E-1,-7.5485504E-1,-5.3936356E-1,6.24795E-1,-8.9068043E-1,2.2067785E-1],"categories":[],"categories_nodes":[],"categories_segments":[],"categories_sizes":[],"default_left":[1,1,1,1,1,1,1,1,1,1,1,1,1,1,1,1,1,1,1,0,1,1,1,0,0,1,0,0,0,1,0,1,1,1,1,0,1,0,0,1,1,1,1,1,1,1,1,1,1,0,0,0,0,0,0,0,0,0,0,0,0,0,0,0,0,0,0,0,0,0,0,0,0,0,0,0,0,0,0],"id":14,"left_children":[1,3,5,7,9,11,13,15,17,19,21,23,25,27,29,31,33,35,37,-1,39,41,43,-1,-1,45,-1,-1,-1,47,-1,49,51,53,55,-1,57,-1,-1,59,61,63,65,67,69,71,73,75,77,-1,-1,-1,-1,-1,-1,-1,-1,-1,-1,-1,-1,-1,-1,-1,-1,-1,-1,-1,-1,-1,-1,-1,-1,-1,-1,-1,-1,-1,-1],"loss_changes":[2.7997506E0,3.036465E0,1.9358435E0,1.2826509E1,6.147471E0,3.5002573E0,2.1930308E0,4.1388626E0,4.6155453E0,5.3969116E0,3.7099183E0,2.324735E0,2.9999552E0,1.3140469E0,3.0317483E0,4.4718513E0,6.06925E0,1.5919819E0,2.1546068E0,0E0,3.309412E0,3.2726443E0,5.4118237E0,0E0,0E0,2.0862613E0,0E0,0E0,0E0,1.4844248E0,0E0,6.0815625E0,1.7318444E0,2.6313396E0,2.3506825E0,0E0,1.6787987E0,0E0,0E0,4.121869E0,3.900403E0,3.5208446E-1,7.230358E-1,4.838874E0,2.0141416E0,1.4317231E0,3.3576567E0,2.311744E0,1.8266554E0,0E0,0E0,0E0,0E0,0E0,0E0,0E0,0E0,0E0,0E0,0E0,0E0,0E0,0E0,0E0,0E0,0E0,0E0,0E0,0E0,0E0,0E0,0E0,0E0,0E0,0E0,0E0,0E0,0E0,0E0],"parents":[2147483647,0,0,1,1,2,2,3,3,4,4,5,5,6,6,7,7,8,8,9,9,10,10,11,11,12,12,13,13,14,14,15,15,16,16,17,17,18,18,20,20,21,21,22,22,25,25,29,29,31,31,32,32,33,33,34,34,36,36,39,39,40,40,41,41,42,42,43,43,44,44,45,45,46,46,47,47,48,48],"right_children":[2,4,6,8,10,12,14,16,18,20,22,24,26,28,30,32,34,36,38,-1,40,42,44,-1,-1,46,-1,-1,-1,48,-1,50,52,54,56,-1,58,-1,-1,60,62,64,66,68,70,72,74,76,78,-1,-1,-1,-1,-1,-1,-1,-1,-1,-1,-1,-1,-1,-1,-1,-1,-1,-1,-1,-1,-1,-1,-1,-1,-1,-1,-1,-1,-1,-1],"split_conditions":[-1.2030459E-1,5.617062E-1,-2.0163357E-1,3.6373395E-1,1.0007415E0,3.0896124E-1,2.5E1,1.2576046E0,2.0631418E0,-3.2643232E-1,-4.256832E-1,3.0360746E-1,2.273573E-2,-1.4635191E0,1.1220888E0,2.7282834E-1,6.8774784E-1,-1.5193723E0,-9.5948803E-1,-3.1709182E-1,-2.3256642E-1,-6.626657E-1,-2.2370769E-1,-2.6524794E-1,9.4997734E-2,-4.412302E-1,-2.0468725E-1,1.4042492E-3,-2.7926084E-1,-1.5199331E0,2.3946157E-1,-9.81141E-1,-4.1629988E-1,-2.4723627E-1,2.152646E0,-5.0538214E-4,-1.3105471E0,-1.6343324E-1,2.593012E-1,2.3034137E-1,6.6305876E-1,1.1807328E0,-2.0472685E-1,1.6646716E-1,-4.1113576E-1,-5.913873E-1,-5.0168204E-1,-8.559133E-1,4.9056923E-1,-1.2930469E-1,2.2442015E-3,5.246724E-2,3.3620524E-1,1.6828702E-1,-1.8248284E-1,3.6366597E-2,-4.3527767E-1,-2.3896845E-2,-3.8058826E-1,1.1831599E-1,-1.8651383E-1,3.818029E-1,1.15630224E-1,-2.1096121E-1,-2.61056E-3,3.0116765E-2,2.3375902E-1,8.0135405E-2,-8.656525E-2,-4.318124E-3,-3.7598807E-1,-1.135284E-2,3.427037E-1,1.7297821E-1,-2.2645652E-1,-1.6180907E-1,1.8743852E-1,-2.6720414E-1,6.6203356E-2],"split_indices":[1,10,12,10,11,1,14,8,8,0,8,6,11,5,10,10,11,12,12,0,12,8,0,0,0,6,0,0,0,11,0,12,7,7,8,0,5,0,0,8,11,11,12,12,6,12,12,8,6,0,0,0,0,0,0,0,0,0,0,0,0,0,0,0,0,0,0,0,0,0,0,0,0,0,0,0,0,0,0],"split_type":[0,0,0,0,0,0,0,0,0,0,0,0,0,0,0,0,0,0,0,0,0,0,0,0,0,0,0,0,0,0,0,0,0,0,0,0,0,0,0,0,0,0,0,0,0,0,0,0,0,0,0,0,0,0,0,0,0,0,0,0,0,0,0,0,0,0,0,0,0,0,0,0,0,0,0,0,0,0,0],"sum_hessian":[6.121166E2,5.701709E2,4.19457E1,4.3845978E2,1.317111E2,1.9087107E1,2.2858593E1,4.2138235E2,1.7077446E1,5.132767E1,8.038343E1,6.3145223E0,1.2772585E1,9.740599E0,1.3117995E1,3.893246E2,3.2057755E1,1.4542377E1,2.535069E0,1.4713844E0,4.9856285E1,1.3438756E1,6.694467E1,4.6539707E0,1.6605514E0,1.100493E1,1.7676551E0,1.7920085E0,7.94859E0,1.1298006E1,1.8199886E0,3.816254E2,7.699206E0,2.9289528E1,2.7682245E0,1.3176223E0,1.3224755E1,1.0251992E0,1.5098698E0,2.8080439E1,2.1775846E1,2.4053972E0,1.103336E1,6.083469E1,6.1099844E0,5.086728E0,5.918202E0,4.8359766E0,6.4620295E0,3.3789135E1,3.4783624E2,4.121127E0,3.5780785E0,2.803003E1,1.259499E0,1.3230385E0,1.445186E0,1.4630544E0,1.1761701E1,2.4262804E1,3.8176348E0,8.32783E0,1.3448016E1,1.2985865E0,1.1068107E0,2.2561948E0,8.777164E0,2.8929382E1,3.1905308E1,1.7709757E0,4.339009E0,1.2240239E0,3.862704E0,3.7747986E0,2.1434035E0,2.349438E0,2.4865386E0,4.94753E0,1.5144995E0],"tree_param":{"num_deleted":"0","num_feature":"15","num_nodes":"79","size_leaf_vector":"0"}},{"base_weights":[-3.0871145E-3,-3.6909778E-2,1.193203E-1,3.0761627E-2,-3.0065572E-1,-4.981472E-1,1.7721206E-1,6.528568E-2,-2.88965E-1,-1.7001553E-1,-7.860239E-1,6.806551E-2,-9.698977E-1,-6.773599E-2,2.9937613E-1,4.209116E-2,7.1759605E-1,3.097918E-1,-5.660533E-1,-7.9413843E-1,-2.675443E-2,-1.2658484E0,1.134231E-1,-8.532673E-1,4.5122552E-1,-1.5630009E0,-4.6865207E-1,-2.3427826E-1,5.97299E-1,-1.5737844E-1,4.6428686E-1,-1.25742955E-2,2.724609E-1,9.6975696E-1,-4.911411E-1,-8.817344E-1,5.105135E-1,2.1537921E-1,-9.731268E-1,-1.0409278E0,1.0141205E0,3.5918632E-1,-2.1940513E-1,-1.4014533E0,-2.0452917E-1,-4.4636166E-1,8.044513E-1,-1.8465911E-1,7.970474E-1,6.27121E-1,-1.0851628E0,6.3499695E-1,-3.3197698E-1,-5.3103E-1,9.5822555E-1,6.0318905E-1,-2.8173935E-1,5.2362025E-1,-3.0050087E-1,3.29204E-2,-2.6382205E-1,6.552076E-2,6.956269E-1,1.2275456E0,-5.5813503E-2,-5.4871047E-1,7.9654735E-1,5.91851E-1,-8.9663553E-1,-1.3946649E0,-3.4674072E-1,-5.940892E-2,-1.2212514E0,-3.4674957E-1,7.0170957E-1,-7.0842767E-1,-1.0020092E-1,-2.8170735E-1,-1.5254917E0,-8.8992697E-1,2.4668808E-1,9.732186E-1,3.1787542E-1,-1.2935416E0,-2.8496927E-1,3.3618847E-1,-5.128006E-1,1.0782399E0,1.9708185E-1,9.732482E-1,-4.493577E-2,-3.2938197E-2,-8.4713966E-1,8.023199E-1,3.1182885E-1,3.736199E-1,-1.0877842E0],"categories":[],"categories_nodes":[],"categories_segments":[],"categories_sizes":[],"default_left":[1,1,1,1,1,1,1,1,1,1,1,1,1,1,1,1,1,1,1,1,1,1,1,0,1,0,1,1,1,1,1,1,1,1,0,0,1,1,1,1,0,1,1,1,0,1,1,0,0,0,1,0,1,0,1,1,1,1,1,0,0,0,0,0,0,0,0,0,0,0,0,0,0,0,0,0,0,0,0,0,0,0,0,0,0,0,0,0,0,0,0,0,0,0,0,0,0],"id":15,"left_children":[1,3,5,7,9,11,13,15,17,19,21,23,25,27,29,31,33,35,37,39,41,43,45,-1,47,-1,49,51,53,55,57,59,61,63,-1,-1,65,67,69,71,-1,73,75,77,-1,79,81,-1,-1,-1,83,-1,85,-1,87,89,91,93,95,-1,-1,-1,-1,-1,-1,-1,-1,-1,-1,-1,-1,-1,-1,-1,-1,-1,-1,-1,-1,-1,-1,-1,-1,-1,-1,-1,-1,-1,-1,-1,-1,-1,-1,-1,-1,-1,-1],"loss_changes":[2.505333E0,8.470218E0,4.771487E0,4.193163E0,6.0099726E0,3.1358666E0,3.6266937E0,5.1461887E0,6.3204565E0,6.9187183E0,8.892418E0,2.558848E0,1.1508098E0,4.672188E0,6.144075E0,4.177364E0,4.0378804E0,3.40723E0,8.376775E0,7.5064497E0,4.849367E0,1.6277657E0,3.4420788E0,0E0,1.2474098E0,0E0,3.9648E0,3.0510912E0,3.9610815E0,2.2628696E0,2.8560057E0,3.081557E0,5.5247254E0,2.7134857E0,0E0,0E0,3.8349218E0,4.5549307E0,4.021614E0,2.2660093E0,0E0,5.5007434E0,2.460069E0,1.184721E0,0E0,1.77082E0,1.2845516E-2,0E0,0E0,0E0,2.1121454E-1,0E0,3.8841724E0,0E0,4.067664E-1,8.659209E-1,2.7432694E0,3.0289688E0,3.0160217E0,0E0,0E0,0E0,0E0,0E0,0E0,0E0,0E0,0E0,0E0,0E0,0E0,0E0,0E0,0E0,0E0,0E0,0E0,0E0,0E0,0E0,0E0,0E0,0E0,0E0,0E0,0E0,0E0,0E0,0E0,0E0,0E0,0E0,0E0,0E0,0E0,0E0,0E0],"parents":[2147483647,0,0,1,1,2,2,3,3,4,4,5,5,6,6,7,7,8,8,9,9,10,10,11,11,12,12,13,13,14,14,15,15,16,16,17,17,18,18,19,19,20,20,21,21,22,22,24,24,26,26,27,27,28,28,29,29,30,30,31,31,32,32,33,33,36,36,37,37,38,38,39,39,41,41,42,42,43,43,45,45,46,46,50,50,52,52,54,54,55,55,56,56,57,57,58,58],"right_children":[2,4,6,8,10,12,14,16,18,20,22,24,26,28,30,32,34,36,38,40,42,44,46,-1,48,-1,50,52,54,56,58,60,62,64,-1,-1,66,68,70,72,-1,74,76,78,-1,80,82,-1,-1,-1,84,-1,86,-1,88,90,92,94,96,-1,-1,-1,-1,-1,-1,-1,-1,-1,-1,-1,-1,-1,-1,-1,-1,-1,-1,-1,-1,-1,-1,-1,-1,-1,-1,-1,-1,-1,-1,-1,-1,-1,-1,-1,-1,-1,-1],"split_conditions":[-1.8918918E-1,-3.2461423E-1,-1.025053E0,5.006373E-1,4.663068E-1,3.2594806E-1,1.95E1,-5.6322712E-2,-4.7884828E-1,-6.3317E-1,1.2576046E0,-1.0326491E-1,-4.1997516E-1,5.8734083E-1,-4.3835163E-1,-3.8856494E-1,1.5405945E-1,6.7811006E-1,-5.050164E-1,4.814748E0,-8.239193E-2,-2.9201093E-1,-4.2365044E-1,-2.559802E-1,2.15E1,-4.689003E-1,-3.2727987E-1,-9.328003E-1,1.086755E0,-3.2721663E-1,1.232341E0,-4.26183E-1,-4.0527397E-1,-2.0615776E-1,-1.4734234E-1,-2.6452032E-1,-1.5717006E0,2.314261E-1,2.4109015E0,-1.3647082E0,3.0423614E-1,-1.1734896E0,-2.6442534E-1,-2.7130347E-1,-6.1358754E-2,1.8932874E0,-2.1459793E-1,-5.5397734E-2,2.3911422E-1,1.881363E-1,8.1705E-1,1.904991E-1,-5.395975E-1,-1.59309E-1,1.5072658E0,-1.5509403E0,9.4332314E-1,1.9803265E-2,-7.5318694E-1,9.876121E-3,-7.9146616E-2,1.965623E-2,2.0868808E-1,3.682637E-1,-1.6744051E-2,-1.6461314E-1,2.3896421E-1,1.7755531E-1,-2.6899067E-1,-4.1839948E-1,-1.0402222E-1,-1.7822677E-2,-3.6637542E-1,-1.0402488E-1,2.1051288E-1,-2.125283E-1,-3.0060278E-2,-8.4512204E-2,-4.5764753E-1,-2.669781E-1,7.400643E-2,2.919656E-1,9.5362626E-2,-3.8806248E-1,-8.5490786E-2,1.0085654E-1,-1.5384018E-1,3.23472E-1,5.9124555E-2,2.9197446E-1,-1.3480731E-2,-9.881459E-3,-2.541419E-1,2.4069597E-1,9.3548656E-2,1.12085976E-1,-3.2633525E-1],"split_indices":[6,6,9,9,8,8,14,9,6,8,8,8,7,8,7,6,8,9,8,9,11,1,7,0,14,0,0,5,11,0,9,6,7,1,0,0,11,12,9,12,0,11,6,0,0,8,11,0,0,0,10,0,8,0,11,10,8,8,8,0,0,0,0,0,0,0,0,0,0,0,0,0,0,0,0,0,0,0,0,0,0,0,0,0,0,0,0,0,0,0,0,0,0,0,0,0,0],"split_type":[0,0,0,0,0,0,0,0,0,0,0,0,0,0,0,0,0,0,0,0,0,0,0,0,0,0,0,0,0,0,0,0,0,0,0,0,0,0,0,0,0,0,0,0,0,0,0,0,0,0,0,0,0,0,0,0,0,0,0,0,0,0,0,0,0,0,0,0,0,0,0,0,0,0,0,0,0,0,0,0,0,0,0,0,0,0,0,0,0,0,0,0,0,0,0,0,0],"sum_hessian":[6.03068E2,4.7305545E2,1.3001253E2,3.7716626E2,9.588919E1,1.0492782E1,1.19519745E2,3.4112717E2,3.603908E1,7.661737E1,1.9271814E1,5.157851E0,5.3349304E0,3.9920906E1,7.959884E1,3.3044202E2,1.0685163E1,1.1364229E1,2.467485E1,1.34553385E1,6.3162033E1,1.2301839E1,6.969976E0,1.1546059E0,4.0032454E0,1.4733466E0,3.861584E0,3.2443836E1,7.4770703E0,2.1127502E1,5.8471336E1,2.678323E2,6.26097E1,9.0044155E0,1.680747E0,1.1492451E0,1.0214984E1,8.612638E0,1.6062212E1,1.2212885E1,1.2424539E0,2.0742918E1,4.2419117E1,1.0623935E1,1.6779037E0,4.046262E0,2.9237144E0,1.5743734E0,2.428872E0,1.3841734E0,2.4774106E0,2.7223303E0,2.9721504E1,1.6978751E0,5.7791953E0,2.4280016E0,1.8699501E1,5.455427E1,3.917063E0,2.2750568E2,4.032663E1,4.2822918E1,1.9786783E1,7.0383167E0,1.9660993E0,1.976688E0,8.238296E0,6.7837663E0,1.8288722E0,8.867882E0,7.1943307E0,2.1018384E0,1.0111047E1,6.772515E0,1.3970403E1,7.344816E0,3.5074303E1,1.3857083E0,9.238227E0,2.29399E0,1.7522718E0,1.4282078E0,1.4955066E0,1.4764038E0,1.0010067E0,6.147293E0,2.3574211E1,4.632201E0,1.1469938E0,1.2262272E0,1.2017746E0,1.37202425E1,4.979258E0,2.2352291E1,3.220198E1,2.3932476E0,1.5238155E0],"tree_param":{"num_deleted":"0","num_feature":"15","num_nodes":"97","size_leaf_vector":"0"}},{"base_weights":[-4.5151818E-3,-7.401121E-1,8.4096166E-5,-1.0959597E-2,3.348901E-1,5.127303E-3,-4.595763E-1,-1.181391E-1,9.807043E-1,-4.9080506E-1,1.4564255E-2,2.7506107E-1,-5.903502E-1,4.5772296E-1,-6.308955E-1,3.6641195E-1,-9.246505E-1,1.5106349E-1,-2.7530639E-2,-6.633989E-1,9.145433E-1,-1.1646197E0,-2.9757732E-1,-5.18965E-1,8.784321E-1,-1.3074285E0,-2.1009755E-1,6.840426E-1,-1.6422476E-1,-8.297401E-3,-1.0875455E0,2.624488E-1,-3.0016187E-1,3.8765067E-1,-4.6213746E-2,5.391331E-1,-4.6740904E-1,1.0717468E0,8.500602E-2,7.197507E-1,-9.818124E-1],"categories":[],"categories_nodes":[],"categories_segments":[],"categories_sizes":[],"default_left":[1,0,1,1,1,1,1,1,0,1,1,1,1,1,1,1,1,1,1,0,0,0,1,0,1,0,1,0,0,0,0,0,0,0,0,0,0,0,0,0,0],"id":16,"left_children":[1,-1,3,5,7,9,11,13,-1,15,17,19,21,23,25,27,29,31,33,-1,-1,-1,35,-1,37,-1,39,-1,-1,-1,-1,-1,-1,-1,-1,-1,-1,-1,-1,-1,-1],"loss_changes":[2.0105593E0,0E0,2.1909745E0,4.1422477E0,5.651785E0,2.6035364E0,2.0712366E0,3.835963E0,0E0,4.202212E0,3.1378965E0,2.817953E0,2.542675E0,3.0190349E0,1.6541007E0,8.21421E-1,1.0629168E0,6.5473313E0,3.2578285E0,0E0,0E0,0E0,2.0602245E0,0E0,6.3457894E-1,0E0,4.5590105E0,0E0,0E0,0E0,0E0,0E0,0E0,0E0,0E0,0E0,0E0,0E0,0E0,0E0,0E0],"parents":[2147483647,0,0,2,2,3,3,4,4,5,5,6,6,7,7,9,9,10,10,11,11,12,12,13,13,14,14,15,15,16,16,17,17,18,18,22,22,24,24,26,26],"right_children":[2,-1,4,6,8,10,12,14,-1,16,18,20,22,24,26,28,30,32,34,-1,-1,-1,36,-1,38,-1,40,-1,-1,-1,-1,-1,-1,-1,-1,-1,-1,-1,-1,-1,-1],"split_conditions":[-2.61342E0,-2.2203365E-1,1.6152598E0,-2.2886258E-1,5.4694104E-1,-1.5634191E0,-1.6451769E0,9.122799E-2,2.942113E-1,-5.0518095E-1,1.15E1,-7.999679E-1,3.5564E-1,-1.8069625E-2,7.794756E-1,1.3065088E-1,-1.6321492E0,5.2219474E-1,-1.3329296E0,-1.9901969E-1,2.7436298E-1,-3.4938592E-1,1.35E1,-1.5568951E-1,-3.659941E-1,-3.9222857E-1,6.1375213E0,2.0521279E-1,-4.926743E-2,-2.4892204E-3,-3.2626367E-1,7.873464E-2,-9.004857E-2,1.162952E-1,-1.3864124E-2,1.6173993E-1,-1.4022271E-1,3.2152405E-1,2.5501808E-2,2.1592522E-1,-2.9454374E-1],"split_indices":[11,0,0,0,12,5,8,11,0,6,14,11,11,10,10,11,10,12,8,0,0,0,14,0,6,0,0,0,0,0,0,0,0,0,0,0,0,0,0,0,0],"split_type":[0,0,0,0,0,0,0,0,0,0,0,0,0,0,0,0,0,0,0,0,0,0,0,0,0,0,0,0,0,0,0,0,0,0,0,0,0,0,0,0,0],"sum_hessian":[5.932564E2,2.692581E0,5.905638E2,5.726423E2,1.792154E1,5.5377313E2,1.8869123E1,1.1013088E1,6.908451E0,9.388308E0,5.443848E2,2.684621E0,1.6184502E1,5.237891E0,5.7751975E0,3.2070544E0,6.181253E0,1.2770214E2,4.1668268E2,1.0728217E0,1.6117995E0,4.459455E0,1.1725047E1,1.506639E0,3.7312522E0,1.4066501E0,4.368547E0,1.8253385E0,1.381716E0,1.0915817E0,5.089671E0,1.0275529E2,2.4946856E1,1.7092806E1,3.9958987E2,1.6114414E0,1.01136055E1,2.718193E0,1.013059E0,2.011819E0,2.356728E0],"tree_param":{"num_deleted":"0","num_feature":"15","num_nodes":"41","size_leaf_vector":"0"}},{"base_weights":[-3.9798734E-3,6.445146E-4,-7.2397673E-1,8.1039685E-1,-6.229291E-3,-3.5703048E-2,1.0146283E-1,5.789738E-3,-2.5963494E-1,1.3687536E-1,-5.959425E-1,-6.1490824E-3,6.317378E-1,-9.560158E-1,-1.6836786E-1,-3.9468735E-1,1.8123607E-1,4.9727533E-2,-8.2790685E-1,2.7274054E-3,-1.1113235E0,-2.3001035E-1,8.4653443E-1,-1.07373685E-1,-1.1106565E0,-7.0799566E-3,-6.616122E-1,-1.1856246E0,-1.1159573E-2,-7.9793656E-1,1.9914697E-1],"categories":[],"categories_nodes":[],"categories_segments":[],"categories_sizes":[],"default_left":[1,1,0,0,1,1,1,1,1,1,1,1,1,1,1,1,1,0,0,0,0,0,0,0,0,0,0,0,0,0,0],"id":17,"left_children":[1,3,-1,-1,5,7,9,11,13,15,17,19,21,23,25,27,29,-1,-1,-1,-1,-1,-1,-1,-1,-1,-1,-1,-1,-1,-1],"loss_changes":[1.957734E0,3.2617393E0,0E0,0E0,1.848288E0,4.2479744E0,3.1721084E0,2.892664E0,4.381218E0,2.898947E0,9.7484446E-1,3.7339308E0,1.5356793E0,9.3945265E-1,5.1185656E0,2.8838484E0,2.1118257E0,0E0,0E0,0E0,0E0,0E0,0E0,0E0,0E0,0E0,0E0,0E0,0E0,0E0,0E0],"parents":[2147483647,0,0,1,1,4,4,5,5,6,6,7,7,8,8,9,9,10,10,11,11,12,12,13,13,14,14,15,15,16,16],"right_children":[2,4,-1,-1,6,8,10,12,14,16,18,20,22,24,26,28,30,-1,-1,-1,-1,-1,-1,-1,-1,-1,-1,-1,-1,-1,-1],"split_conditions":[1.160666E-2,-3.778641E-1,-2.1719302E-1,2.4311906E-1,-1.8918918E-1,-2.531399E-1,5.1401746E-2,2.7988515E0,-6.3317E-1,-1.025053E0,-5.604545E-1,2.3936315E0,8.647249E-1,-1.3708947E0,4.144351E-1,-4.1997516E-1,-2.3553793E0,1.491826E-2,-2.4837206E-1,8.1822166E-4,-3.3339706E-1,-6.9003105E-2,2.5396034E-1,-3.221211E-2,-3.3319697E-1,-2.123987E-3,-1.9848368E-1,-3.5568738E-1,-3.347872E-3,-2.3938097E-1,5.9744094E-2],"split_indices":[2,1,0,0,6,6,1,12,8,9,12,12,10,12,8,7,11,0,0,0,0,0,0,0,0,0,0,0,0,0,0],"split_type":[0,0,0,0,0,0,0,0,0,0,0,0,0,0,0,0,0,0,0,0,0,0,0,0,0,0,0,0,0,0,0],"sum_hessian":[5.868483E2,5.8409595E2,2.75242E0,3.9325695E0,5.801633E2,4.560246E2,1.2413878E2,3.8555792E2,7.046665E1,1.18904816E2,5.2339582E0,3.793134E2,6.244536E0,7.0672894E0,6.3399364E1,8.5504E0,1.10354416E2,1.5910137E0,3.6429446E0,3.772807E2,2.0326931E0,1.2318032E0,5.012733E0,1.3504713E0,5.716818E0,4.854108E1,1.4858284E1,2.109232E0,6.4411674E0,1.2000215E0,1.09154396E2],"tree_param":{"num_deleted":"0","num_feature":"15","num_nodes":"31","size_leaf_vector":"0"}},{"base_weights":[-5.4179477E-3,-9.136379E-3,8.1578875E-1,-1.7465192E-1,6.3934824E-3,-6.612852E-2,-1.0961399E0,-1.782259E-2,1.563687E-1,-4.2461854E-1,1.9421884E-1,-2.8290397E-1,-1.225525E0,2.111724E-3,-4.3222508E-1,3.8021266E-1,-4.097038E-2,6.189141E-1,-5.641833E-1,-1.6145527E-1,7.945063E-1,5.92134E-1,-1.5199715E-2,-9.365033E-1,5.548266E-1,4.55784E-1,-1.0404304E0,4.5903805E-1,-2.4454391E-1,-1.8419759E-1,-1.0251788E0,4.884286E-2,-7.3559564E-1,1.050566E0,-5.4915983E-2,7.911429E-1,-4.7151804E-1,-1.3091083E0,-9.495178E-5,-1.1410033E0,-3.1614873E-1,-2.0068139E-1,7.678922E-1,5.4803205E-1,-3.7019426E-1,-7.5336623E-1,7.6151556E-1,5.084967E-1,-4.4260743E-1],"categories":[],"categories_nodes":[],"categories_segments":[],"categories_sizes":[],"default_left":[1,1,0,1,1,1,1,1,1,1,1,0,0,1,1,1,1,0,1,1,1,1,1,1,1,1,0,1,1,0,0,0,0,0,0,0,0,0,0,0,0,0,0,0,0,0,0,0,0],"id":18,"left_children":[1,3,-1,5,7,9,11,13,15,17,19,-1,-1,21,23,25,27,-1,29,31,33,35,37,39,41,43,-1,45,47,-1,-1,-1,-1,-1,-1,-1,-1,-1,-1,-1,-1,-1,-1,-1,-1,-1,-1,-1,-1],"loss_changes":[1.7897918E0,1.497217E0,0E0,4.923884E0,1.9388323E0,4.3535542E0,2.0042944E-1,3.799811E0,3.293715E0,3.1988146E0,5.9348226E0,0E0,0E0,4.5007453E0,1.1027565E1,4.217611E0,4.2187386E0,0E0,2.9259315E0,2.1982298E0,2.2952404E0,3.0316668E0,8.368654E0,1.4590597E0,1.4042861E0,2.7784219E0,0E0,4.9819E0,4.598564E0,0E0,0E0,0E0,0E0,0E0,0E0,0E0,0E0,0E0,0E0,0E0,0E0,0E0,0E0,0E0,0E0,0E0,0E0,0E0,0E0],"parents":[2147483647,0,0,1,1,3,3,4,4,5,5,6,6,7,7,8,8,9,9,10,10,13,13,14,14,15,15,16,16,18,18,19,19,20,20,21,21,22,22,23,23,24,24,25,25,27,27,28,28],"right_children":[2,4,-1,6,8,10,12,14,16,18,20,-1,-1,22,24,26,28,-1,30,32,34,36,38,40,42,44,-1,46,48,-1,-1,-1,-1,-1,-1,-1,-1,-1,-1,-1,-1,-1,-1,-1,-1,-1,-1,-1,-1],"split_conditions":[1.6968141E0,-3.153003E-1,2.4473663E-1,-3.20335E-1,8.679571E-1,-4.1629988E-1,-1.2325003E0,1.0031308E0,1.2046255E0,-5.239899E-1,6.493834E-1,-8.4871195E-2,-3.676575E-1,-1.3360016E0,1.4371806E0,6.205579E0,-5.239899E-1,1.8567425E-1,-1.0628781E0,1.2538009E0,-2.9201093E-1,-1.05741784E-1,-1.0315504E0,1.7702192E0,9.429681E-2,1.4242995E0,-3.1212914E-1,1.3049746E0,-4.256832E-1,-5.525928E-2,-3.0755365E-1,1.46528585E-2,-2.206787E-1,3.151698E-1,-1.6474796E-2,2.3734288E-1,-1.4145541E-1,-3.927325E-1,-2.8485534E-5,-3.4230098E-1,-9.4844624E-2,-6.020442E-2,2.3036766E-1,1.6440962E-1,-1.1105828E-1,-2.2600988E-1,2.2845468E-1,1.5254901E-1,-1.3278224E-1],"split_indices":[11,0,0,0,10,7,5,11,11,6,8,0,0,9,11,0,6,0,10,10,1,12,9,8,5,10,0,11,8,0,0,0,0,0,0,0,0,0,0,0,0,0,0,0,0,0,0,0,0],"split_type":[0,0,0,0,0,0,0,0,0,0,0,0,0,0,0,0,0,0,0,0,0,0,0,0,0,0,0,0,0,0,0,0,0,0,0,0,0,0,0,0,0,0,0,0,0,0,0,0,0],"sum_hessian":[5.826842E2,5.810421E2,1.6420894E0,4.89622E1,5.320799E2,4.4762314E1,4.199884E0,4.5886884E2,7.321108E1,1.8566235E1,2.6196081E1,1.0138658E0,3.186018E0,4.3875784E2,2.0110992E1,3.386778E1,3.9343304E1,1.7850116E0,1.6781223E1,1.6908642E1,9.28744E0,1.1559884E1,4.2719797E2,1.3344557E1,6.766435E0,3.280204E1,1.0657384E0,1.1020451E1,2.8322853E1,9.96605E0,6.8151727E0,1.3045294E1,3.8633468E0,6.9542656E0,2.3331745E0,9.953744E0,1.6061401E0,3.9409227E0,4.2325705E2,9.404942E0,3.9396152E0,1.5012578E0,5.2651777E0,2.9809336E1,2.9927027E0,1.9028217E0,9.117629E0,5.571725E0,2.2751127E1],"tree_param":{"num_deleted":"0","num_feature":"15","num_nodes":"49","size_leaf_vector":"0"}},{"base_weights":[-5.3517413E-3,4.1505554E-1,-1.1798046E-2,-2.1343496E-1,7.9377466E-1,-8.79867E-1,-2.1692386E-3,3.0212596E-1,-6.489506E-1,1.0186287E0,1.3916443E-2,-6.438936E-2,-1.0696975E0,-1.648144E-2,2.907721E-1,-1.414965E0,-4.5820963E-1,-1.1438903E-2,-6.6724247E-1,7.873126E-1,9.171479E-2,-9.178728E-1,2.3730318E-1,-3.9500963E-2,9.739455E-2,4.6924305E-1,-1.2301422E0,9.353425E-1,-2.3770973E-3,2.2904378E-1,-6.1932963E-1,-4.9928486E-2,5.6332374E-1,1.2943868E-1,-5.4000664E-1,-8.560501E-1,3.5217974E-1,7.181621E-2,-1.0555854E0],"categories":[],"categories_nodes":[],"categories_segments":[],"categories_sizes":[],"default_left":[1,1,1,1,1,1,1,0,0,0,0,0,1,1,1,0,1,1,1,1,1,0,0,1,1,0,0,0,0,1,1,0,0,0,0,0,0,0,0],"id":19,"left_children":[1,3,5,7,9,11,13,-1,-1,-1,-1,-1,15,17,19,-1,21,23,25,27,29,-1,-1,31,33,-1,-1,-1,-1,35,37,-1,-1,-1,-1,-1,-1,-1,-1],"loss_changes":[1.5723624E0,2.2550478E0,4.767622E0,1.1127983E0,9.817567E-1,8.998084E-1,2.3751624E0,0E0,0E0,0E0,0E0,0E0,4.0979862E-1,1.7642913E0,2.5360763E0,0E0,1.2688603E0,1.6434102E0,3.222179E0,8.6958075E-1,2.0917811E0,0E0,0E0,2.7154188E0,2.3234892E0,0E0,0E0,0E0,0E0,2.6352801E0,1.1318545E0,0E0,0E0,0E0,0E0,0E0,0E0,0E0,0E0],"parents":[2147483647,0,0,1,1,2,2,3,3,4,4,5,5,6,6,12,12,13,13,14,14,16,16,17,17,18,18,19,19,20,20,23,23,24,24,29,29,30,30],"right_children":[2,4,6,8,10,12,14,-1,-1,-1,-1,-1,16,18,20,-1,22,24,26,28,30,-1,-1,32,34,-1,-1,-1,-1,36,38,-1,-1,-1,-1,-1,-1,-1,-1],"split_conditions":[-1.7420888E0,-1.7853947E0,-1.680223E0,7.758394E-1,1.0453413E0,-1.2311611E-1,1.6247749E0,9.063779E-2,-1.9468518E-1,3.0558863E-1,4.1749333E-3,-1.931681E-2,7.7179915E-1,1.5474759E0,1.7864927E0,-4.2448953E-1,-3.238011E-1,-1.8918918E-1,-2.2452638E-1,-3.2227162E-1,-2.0799822E-1,-2.7536184E-1,7.119096E-2,2.7029595E0,-3.445142E-2,1.4077292E-1,-3.690427E-1,2.8060275E-1,-7.131292E-4,-5.239899E-1,1E0,-1.4978547E-2,1.6899712E-1,3.8831607E-2,-1.62002E-1,-2.5681505E-1,1.0565393E-1,2.1544864E-2,-3.1667563E-1],"split_indices":[12,12,12,10,11,10,8,0,0,0,0,0,10,8,8,0,0,6,10,12,6,0,0,12,1,0,0,0,0,6,13,0,0,0,0,0,0,0,0],"split_type":[0,0,0,0,0,0,0,0,0,0,0,0,0,0,0,0,0,0,0,0,0,0,0,0,0,0,0,0,0,0,0,0,0,0,0,0,0,0,0],"sum_hessian":[5.7738495E2,7.7623577E0,5.696226E2,3.0828116E0,4.679546E0,5.2575593E0,5.6436505E2,1.551928E0,1.5308837E0,3.3946154E0,1.2849303E0,1.2456527E0,4.0119066E0,5.389761E2,2.5388952E1,1.7243224E0,2.2875843E0,5.358416E2,3.1344852E0,6.419804E0,1.8969149E1,1.1848274E0,1.1027569E0,4.265065E2,1.0933511E2,1.0933706E0,2.0411146E0,5.2510376E0,1.1687667E0,1.6466698E1,2.5024514E0,4.201559E2,6.3505864E0,1.0486038E2,4.47473E0,1.0715911E0,1.5395106E1,1.2915968E0,1.2108548E0],"tree_param":{"num_deleted":"0","num_feature":"15","num_nodes":"39","size_leaf_vector":"0"}},{"base_weights":[-4.8268544E-3,-2.9632303E-1,4.914547E-3,2.1203509E-1,-5.254325E-1,7.254909E-1,-1.6570741E-3,-4.7452238E-1,4.624472E-1,-2.0083337E-1,-8.445289E-1,-8.6223006E-2,9.7126406E-1,-1.6810708E-1,1.9899227E-2,7.4498916E-1,-2.509294E-1,-7.3948646E-1,5.298109E-1,-3.5041365E-1,2.5064263E-1,4.620983E-1,-7.668036E-3,9.2575556E-1,1.644818E-1,-2.3912309E-1,-8.3374244E-1,-5.671871E-2,8.304159E-1,-9.1940705E-3,-7.7623445E-1,7.008014E-1,-2.0351764E-2,3.0297333E-1,8.782756E-1,-4.3572265E-1,1.9544223E-2,1.1472104E-1,-5.736838E-1,-5.07861E-1,-1.2914091E0,9.3229675E-1,6.82823E-2,-6.415479E-1,3.2166317E-1,6.3155895E-1,8.321853E-2,1.0346531E0,-1.8970169E-3,-6.289803E-1,3.968844E-1,-5.9399533E-1,2.9693149E-2],"categories":[],"categories_nodes":[],"categories_segments":[],"categories_sizes":[],"default_left":[1,1,1,1,1,1,1,0,1,1,0,0,0,1,1,1,0,1,1,1,1,1,1,0,0,0,0,0,0,1,1,1,1,1,1,1,1,0,0,0,0,0,0,0,0,0,0,0,0,0,0,0,0],"id":20,"left_children":[1,3,5,7,9,11,13,-1,15,17,-1,-1,-1,19,21,23,-1,25,27,29,31,33,35,-1,-1,-1,-1,-1,-1,37,39,41,43,45,47,49,51,-1,-1,-1,-1,-1,-1,-1,-1,-1,-1,-1,-1,-1,-1,-1,-1],"loss_changes":[1.6374353E0,2.2832549E0,2.645835E0,1.3379078E0,1.1915812E0,1.0911312E0,1.9926912E0,0E0,1.2498417E0,3.4720755E0,0E0,0E0,0E0,4.9489155E0,5.998217E0,2.7054954E-1,0E0,3.2796144E-2,7.3542905E-1,6.499253E0,2.441461E0,1.6460824E0,5.4120216E0,0E0,0E0,0E0,0E0,0E0,0E0,1.8754749E0,2.0966444E0,1.0352561E0,3.0515327E0,1.5659535E0,1.0287251E0,4.7181053E0,2.7394586E0,0E0,0E0,0E0,0E0,0E0,0E0,0E0,0E0,0E0,0E0,0E0,0E0,0E0,0E0,0E0,0E0],"parents":[2147483647,0,0,1,1,2,2,3,3,4,4,5,5,6,6,8,8,9,9,13,13,14,14,15,15,17,17,18,18,19,19,20,20,21,21,22,22,29,29,30,30,31,31,32,32,33,33,34,34,35,35,36,36],"right_children":[2,4,6,8,10,12,14,-1,16,18,-1,-1,-1,20,22,24,-1,26,28,30,32,34,36,-1,-1,-1,-1,-1,-1,38,40,42,44,46,48,50,52,-1,-1,-1,-1,-1,-1,-1,-1,-1,-1,-1,-1,-1,-1,-1,-1],"split_conditions":[1.1186552E-1,5E-1,-2.2717059E0,-1.5804341E0,2.1142887E-2,-1.4129724E-1,-6.535119E-1,-1.4235672E-1,1.1691177E0,1.9687164E-1,-2.533587E-1,-2.5866903E-2,2.9137924E-1,5.798873E-1,-4.8874292E-1,-4.1997516E-1,-7.527882E-2,-4.2365044E-1,-1.6767068E0,-1.2125143E0,2.0830198E-1,-3.0481491E-2,-2.8125608E-1,2.7772668E-1,4.9344543E-2,-7.173693E-2,-2.5012276E-1,-1.7015614E-2,2.4912478E-1,-7.440331E-1,6.1295524E-2,-2.606635E-1,5.5952394E-1,-6.0164016E-1,2.2310808E-1,1.4145291E0,-1.5634191E0,3.4416314E-2,-1.7210515E-1,-1.5235831E-1,-3.8742277E-1,2.7968904E-1,2.048469E-2,-1.9246438E-1,9.649896E-2,1.894677E-1,2.496556E-2,3.1039593E-1,-5.691051E-4,-1.8869409E-1,1.1906533E-1,-1.781986E-1,8.907945E-3],"split_indices":[4,13,8,10,11,10,8,0,8,10,0,0,0,10,8,7,0,7,8,11,11,9,8,0,0,0,0,0,0,8,12,6,11,8,1,0,5,0,0,0,0,0,0,0,0,0,0,0,0,0,0,0,0],"split_type":[0,0,0,0,0,0,0,0,0,0,0,0,0,0,0,0,0,0,0,0,0,0,0,0,0,0,0,0,0,0,0,0,0,0,0,0,0,0,0,0,0,0,0,0,0,0,0,0,0,0,0,0,0],"sum_hessian":[5.75134E2,1.7647299E1,5.574867E2,5.505649E0,1.2141649E1,4.0496182E0,5.534371E2,1.2322394E0,4.27341E0,6.826653E0,5.3149962E0,1.0920582E0,2.95756E0,6.2676117E1,4.9076093E2,3.029302E0,1.244108E0,3.9226527E0,2.9040003E0,4.3779495E1,1.889662E1,2.7874294E1,4.6288666E2,1.8564724E0,1.1728295E0,1.1824582E0,2.7401946E0,1.2589333E0,1.6450671E0,2.4871225E1,1.890827E1,6.504958E0,1.2391663E1,2.141448E1,6.459814E0,2.677041E1,4.3611624E2,2.1047674E1,3.8235521E0,1.3737636E1,5.170635E0,4.415126E0,2.0898325E0,4.0890317E0,8.302631E0,7.83114E0,1.358334E1,5.336231E0,1.1235832E0,2.1925756E1,4.844654E0,6.1605515E0,4.299557E2],"tree_param":{"num_deleted":"0","num_feature":"15","num_nodes":"53","size_leaf_vector":"0"}},{"base_weights":[-3.598828E-3,8.777638E-2,-3.1877983E-2,-1.5013782E-2,3.5583317E-1,-4.3475054E-2,3.8552833E-1,5.5539615E-2,-8.7075245E-1,4.8726594E-1,-1.4359927E-1,-3.832824E-2,-7.9347366E-1,5.492008E-1,-3.333972E-1,-7.887799E-2,6.5681654E-1,-1.3862985E0,-3.3666384E-1,-3.9941671E-1,5.5785704E-1,6.909382E-1,-8.425021E-1,7.194147E-1,-4.443643E-2,8.74773E-1,1.0082331E-1,-1.4344773E0,-3.123618E-2,9.189574E-1,-3.9965945E-1,-4.8118952E-1,-1.6971695E0,3.2401693E-1,-1.0190351E0,6.178144E-1,-4.4202837E-1,8.2874334E-1,1.3297962E-1,-2.340006E-1,-1.1647042E0,5.5909153E-2,-8.2309455E-2,-1.2343312E-1,1.1381426E0,-6.218439E-1,6.038077E-1,6.26603E-2,-5.708386E-1,1.0345093E0,1.0379673E-2,2.1719643E-1,-9.5478743E-1,5.826823E-1,-1.1657957E-1,6.8181515E-1,-5.6400888E-2,-1.1698709E-2,-3.415689E-1,6.8140746E-4,6.932769E-1,-6.203466E-2,-6.165201E-1,1.6304347E-1,7.2648805E-1],"categories":[],"categories_nodes":[],"categories_segments":[],"categories_sizes":[],"default_left":[1,1,1,1,1,1,1,1,1,1,1,1,0,1,0,1,1,1,1,0,1,1,1,0,1,1,1,0,1,1,1,0,0,1,0,1,0,0,0,1,0,1,1,0,0,0,1,0,0,0,0,0,0,0,0,0,0,0,0,0,0,0,0,0,0],"id":21,"left_children":[1,3,5,7,9,11,13,15,17,19,21,23,-1,25,-1,27,29,31,33,-1,35,37,39,-1,41,43,45,-1,47,49,51,-1,-1,53,-1,55,-1,-1,-1,57,-1,59,61,-1,-1,-1,63,-1,-1,-1,-1,-1,-1,-1,-1,-1,-1,-1,-1,-1,-1,-1,-1,-1,-1],"loss_changes":[1.4805002E0,3.7366712E0,2.134283E0,6.016141E0,2.5365252E0,1.615982E0,1.5864774E0,7.508146E0,1.6228175E0,2.0990167E0,5.598656E0,1.9974777E0,0E0,1.385109E0,0E0,4.882431E0,5.065145E0,1.7957973E-1,2.6060064E0,0E0,1.9626131E0,2.334497E-1,7.335205E-1,0E0,1.6091478E0,1.6433959E0,2.3295424E0,0E0,3.821838E0,1.4479618E0,1.6008043E0,0E0,0E0,4.467037E-1,0E0,1.2037153E0,0E0,0E0,0E0,6.840837E-2,0E0,4.092743E0,3.286033E0,0E0,0E0,0E0,8.038092E-2,0E0,0E0,0E0,0E0,0E0,0E0,0E0,0E0,0E0,0E0,0E0,0E0,0E0,0E0,0E0,0E0,0E0,0E0],"parents":[2147483647,0,0,1,1,2,2,3,3,4,4,5,5,6,6,7,7,8,8,9,9,10,10,11,11,13,13,15,15,16,16,17,17,18,18,20,20,21,21,22,22,24,24,25,25,26,26,28,28,29,29,30,30,33,33,35,35,39,39,41,41,42,42,46,46],"right_children":[2,4,6,8,10,12,14,16,18,20,22,24,-1,26,-1,28,30,32,34,-1,36,38,40,-1,42,44,46,-1,48,50,52,-1,-1,54,-1,56,-1,-1,-1,58,-1,60,62,-1,-1,-1,64,-1,-1,-1,-1,-1,-1,-1,-1,-1,-1,-1,-1,-1,-1,-1,-1,-1,-1],"split_conditions":[1.35E1,-4.1113576E-1,1.4817803E0,1.1132002E0,7.510927E-1,1.160666E-2,-2.9201093E-1,7.556381E-1,1.1719723E0,-3.239529E-1,-1.166738E0,-3.778641E-1,-2.380421E-1,1.545494E0,-1.00019164E-1,-1.5595851E0,1.272861E0,-4.3835163E-1,1.3487778E0,-1.1982502E-1,4.879209E-1,1.7152963E0,2.3219463E-1,2.1582443E-1,-5.578469E-1,9.429681E-2,1.2952371E0,-4.303432E-1,4.7270223E-1,1.2089037E0,-4.2732573E-1,-1.4435686E-1,-5.0915086E-1,9.7102284E-2,-3.0571055E-1,-1.7917956E-1,-1.3260852E-1,2.4862301E-1,3.9893888E-2,1.0338444E0,-3.4941128E-1,-6.131984E-1,1.2239873E0,-3.7029937E-2,3.414428E-1,-1.8655317E-1,-6.9037235E-1,1.879809E-2,-1.7125158E-1,3.103528E-1,3.113902E-3,6.515893E-2,-2.8643623E-1,1.748047E-1,-3.497387E-2,2.0454456E-1,-1.6920267E-2,-3.5096128E-3,-1.0247067E-1,2.0442225E-4,2.0798308E-1,-1.86104E-2,-1.8495604E-1,4.8913043E-2,2.1794643E-1],"split_indices":[14,6,11,10,8,2,1,10,11,0,12,1,0,11,0,12,8,7,11,0,9,8,11,0,10,5,8,0,12,12,7,0,0,8,0,0,0,0,0,8,0,10,9,0,0,0,12,0,0,0,0,0,0,0,0,0,0,0,0,0,0,0,0,0,0],"split_type":[0,0,0,0,0,0,0,0,0,0,0,0,0,0,0,0,0,0,0,0,0,0,0,0,0,0,0,0,0,0,0,0,0,0,0,0,0,0,0,0,0,0,0,0,0,0,0,0,0,0,0,0,0,0,0,0,0,0,0,0,0,0,0,0,0],"sum_hessian":[5.7086304E2,1.3442073E2,4.364423E2,9.784477E1,3.657597E1,4.2551575E2,1.0926534E1,9.125604E1,6.588723E0,2.8975115E1,7.600855E0,4.2365952E2,1.8562293E0,9.092575E0,1.8339585E0,7.529287E1,1.5963175E1,2.5406477E0,4.048075E0,1.7931746E0,2.718194E1,3.469469E0,4.131386E0,2.4539933E0,4.2120554E2,4.716728E0,4.3758473E0,1.5679795E0,7.372489E1,1.2893988E1,3.069187E0,1.3009049E0,1.2397429E0,2.3235471E0,1.7245284E0,2.6004702E1,1.1772385E0,2.3931043E0,1.0763648E0,2.0278676E0,2.103518E0,1.15283264E2,3.0592227E2,1.0955974E0,3.621131E0,1.6987889E0,2.6770582E0,6.3550343E1,1.0174549E1,1.1316203E1,1.5777843E0,1.7421085E0,1.3270785E0,1.2608452E0,1.062702E0,2.3739891E1,2.26481E0,1.0228305E0,1.0050372E0,1.0701179E2,8.271474E0,2.9581152E2,1.0110754E1,1.0899854E0,1.5870728E0],"tree_param":{"num_deleted":"0","num_feature":"15","num_nodes":"65","size_leaf_vector":"0"}},{"base_weights":[-3.4461848E-3,2.635687E-2,-9.460201E-2,2.046513E-2,6.913137E-1,-6.9413975E-2,-5.598699E-1,-5.0948274E-1,3.2225057E-2,-1.0770781E-2,9.9913454E-1,-9.4772205E-2,7.230947E-1,1.1091289E-1,-7.218454E-1,-7.132175E-1,4.8135364E-1,8.756575E-1,1.6743306E-2,-7.0334226E-2,-6.8863815E-1,1.1650995E0,-2.6171864E-3,7.448942E-2,-9.346335E-1,2.1055192E-1,-1.0111393E0,1.2758158E0,9.508798E-2,-6.564103E-1,2.9337345E-2,-9.22721E-2,6.171298E-1,-9.2877614E-1,1.17949754E-1,-1.19505E0,-8.53653E-2,-6.770049E-1,7.519362E-1,-1.079976E-1,-1.4107687E0,3.2290593E-1,3.029555E-3,-7.238979E-2,-8.6735225E-1,-5.4336064E-2,1.0138898E0],"categories":[],"categories_nodes":[],"categories_segments":[],"categories_sizes":[],"default_left":[1,1,1,1,1,1,1,1,1,0,0,1,1,0,1,1,0,1,1,1,1,0,0,0,0,0,1,0,1,1,1,1,1,0,0,0,0,0,0,0,0,0,0,0,0,0,0],"id":22,"left_children":[1,3,5,7,9,11,13,15,17,-1,-1,19,21,-1,23,25,-1,27,29,31,33,-1,-1,-1,-1,-1,35,-1,37,39,41,43,45,-1,-1,-1,-1,-1,-1,-1,-1,-1,-1,-1,-1,-1,-1],"loss_changes":[1.5435035E0,1.6636429E0,1.6015657E0,2.668339E0,8.1701255E-1,2.7600853E0,8.4574676E-1,2.2201054E0,5.433392E0,0E0,0E0,1.8478526E0,1.3722303E0,0E0,1.0540776E0,2.4460897E0,0E0,2.2216048E0,3.5012672E0,1.9664401E0,1.0878069E0,0E0,0E0,0E0,0E0,0E0,9.719858E-1,0E0,2.3462853E0,2.9859297E0,3.1202424E0,1.8414171E0,1.1328484E0,0E0,0E0,0E0,0E0,0E0,0E0,0E0,0E0,0E0,0E0,0E0,0E0,0E0,0E0],"parents":[2147483647,0,0,1,1,2,2,3,3,4,4,5,5,6,6,7,7,8,8,11,11,12,12,14,14,15,15,17,17,18,18,19,19,20,20,26,26,28,28,29,29,30,30,31,31,32,32],"right_children":[2,4,6,8,10,12,14,16,18,-1,-1,20,22,-1,24,26,-1,28,30,32,34,-1,-1,-1,-1,-1,36,-1,38,40,42,44,46,-1,-1,-1,-1,-1,-1,-1,-1,-1,-1,-1,-1,-1,-1],"split_conditions":[-2.9201093E-1,4.889468E0,2.0007844E0,-1.597186E0,-4.1262457E-1,1.7162023E0,-1.4198129E0,2.4689253E-1,-1.8604233E0,-3.2312344E-3,2.9974037E-1,1.2150903E0,-9.1059804E-2,3.327387E-2,-1.0979812E0,-4.9765733E-1,1.444061E-1,-1.2037537E0,-1.3375525E0,1.0913589E0,1.311346E0,3.4952986E-1,-7.85156E-4,2.2346828E-2,-2.8039005E-1,6.3165575E-2,1.4097396E0,3.8274476E-1,-1.9541571E0,-1.3925056E0,-9.1298485E-1,8.872022E-1,2.9340112E-1,-2.7863285E-1,3.5384927E-2,-3.5851502E-1,-2.5609592E-2,-2.0310147E-1,2.2558087E-1,-3.239928E-2,-4.2323065E-1,9.6871786E-2,9.088666E-4,-2.1716937E-2,-2.602057E-1,-1.630082E-2,3.0416694E-1],"split_indices":[1,9,12,11,7,12,5,12,10,0,0,12,8,0,8,6,0,11,11,12,11,0,0,0,0,0,9,0,10,11,10,12,8,0,0,0,0,0,0,0,0,0,0,0,0,0,0],"split_type":[0,0,0,0,0,0,0,0,0,0,0,0,0,0,0,0,0,0,0,0,0,0,0,0,0,0,0,0,0,0,0,0,0,0,0,0,0,0,0,0,0,0,0,0,0,0,0],"sum_hessian":[5.6623145E2,4.2725342E2,1.3897804E2,4.2452277E2,2.7306368E0,1.329308E2,6.047235E0,8.297154E0,4.1622562E2,1.1264393E0,1.6041974E0,1.2966235E2,3.2684455E0,1.2375335E0,4.8097014E0,7.114471E0,1.1826838E0,6.500911E0,4.097247E2,1.25611786E2,4.0505743E0,1.6549925E0,1.613453E0,1.1512434E0,3.658458E0,1.8064516E0,5.3080196E0,3.878258E0,2.6226532E0,6.5859113E0,4.031388E2,1.2256631E2,3.0454729E0,3.0045648E0,1.0460094E0,4.185649E0,1.1223705E0,1.1914617E0,1.4311917E0,4.4754553E0,2.1104558E0,3.2228367E1,3.7091043E2,1.2056693E2,1.9993799E0,1.4517019E0,1.5937711E0],"tree_param":{"num_deleted":"0","num_feature":"15","num_nodes":"47","size_leaf_vector":"0"}},{"base_weights":[-2.6860486E-3,-2.5877583E-1,6.392137E-3,-5.491642E-1,3.437859E-1,6.317207E-1,3.7058102E-4,-7.687384E-1,1.9002354E-1,7.268914E-1,-8.5683465E-1,9.115139E-1,5.0575532E-2,4.1071698E-2,-7.4774005E-2,-1.5840593E-1,-1.1655064E0,7.366679E-1,-6.4172727E-1,3.1130058E-1,1.0751449E0,-5.532042E-1,6.124723E-2,5.6978464E-1,-1.04286395E-1,-7.2485375E-1,1.9942757E-1,-4.0306312E-1,-1.3516508E0,6.7108047E-1,-1.0401996E-1,1.8779539E-1,-9.735442E-1,-4.120184E-1,7.557105E-2,6.3390225E-2,1.0449953E0,-4.6376106E-1,-4.992987E-2,7.4224675E-1,-3.5418043E-1,8.015425E-1,-5.641633E-1,2.732311E-1,-1.3309325E0,9.797513E-2,-8.773874E-1,4.178628E-1,3.0510915E-2,5.5946666E-1,-7.193563E-1,-2.5300726E-2,-8.452518E-1,-2.0113686E-2,-7.3189205E-1],"categories":[],"categories_nodes":[],"categories_segments":[],"categories_sizes":[],"default_left":[1,1,1,1,1,1,1,1,1,1,0,0,0,1,1,1,1,0,0,1,0,1,1,1,1,0,1,0,0,0,0,1,1,1,1,1,0,1,1,0,0,0,0,0,0,0,0,0,0,0,0,0,0,0,0],"id":23,"left_children":[1,3,5,7,9,11,13,15,17,19,-1,-1,-1,21,23,25,27,-1,-1,29,-1,31,33,35,37,-1,39,-1,-1,-1,-1,41,43,45,47,49,-1,51,53,-1,-1,-1,-1,-1,-1,-1,-1,-1,-1,-1,-1,-1,-1,-1,-1],"loss_changes":[1.3094903E0,3.5629427E0,2.0491796E0,2.3205652E0,3.7901306E0,7.978635E-1,1.6548808E0,2.364684E0,2.2323458E0,4.991417E-1,0E0,0E0,0E0,4.241985E0,3.6756825E0,1.2197981E0,3.3833885E-1,0E0,0E0,6.726177E-1,0E0,3.8033354E0,2.3383522E0,1.9739227E0,3.5453355E0,0E0,1.4755232E0,0E0,0E0,0E0,0E0,2.7807562E0,3.7404513E0,2.49571E0,5.0955124E0,2.4095442E0,0E0,3.9708633E0,3.2337518E0,0E0,0E0,0E0,0E0,0E0,0E0,0E0,0E0,0E0,0E0,0E0,0E0,0E0,0E0,0E0,0E0],"parents":[2147483647,0,0,1,1,2,2,3,3,4,4,5,5,6,6,7,7,8,8,9,9,13,13,14,14,15,15,16,16,19,19,21,21,22,22,23,23,24,24,26,26,31,31,32,32,33,33,34,34,35,35,37,37,38,38],"right_children":[2,4,6,8,10,12,14,16,18,20,-1,-1,-1,22,24,26,28,-1,-1,30,-1,32,34,36,38,-1,40,-1,-1,-1,-1,42,44,46,48,50,-1,52,54,-1,-1,-1,-1,-1,-1,-1,-1,-1,-1,-1,-1,-1,-1,-1,-1],"split_conditions":[-3.2964545E-1,-3.9424807E-1,-3.2872197E-1,3.508027E-2,4.8090118E-1,5E-1,-4.015987E-1,-3.3104956E-1,-4.31001E-1,1E0,-2.570504E-1,2.734542E-1,1.517266E-2,-2.5579453E-1,-1.822041E0,2.75E1,-1.238744E0,2.2100037E-1,-1.9251819E-1,-2.9201093E-1,3.2254347E-1,-3.2705218E-1,-1.9594095E0,-2.5786296E-1,-9.941939E-1,-2.1745613E-1,5.9039205E-1,-1.2091894E-1,-4.0549526E-1,2.0132415E-1,-3.120599E-2,-5.542679E-1,-5.239899E-1,-2.2151573E0,-9.6833634E-1,-3.2461423E-1,3.1349862E-1,-3.7954688E-1,5.176234E-1,2.2267403E-1,-1.0625413E-1,2.4046277E-1,-1.69249E-1,8.196933E-2,-3.9927977E-1,2.9392539E-2,-2.6321623E-1,1.2535885E-1,9.153275E-3,1.6784E-1,-2.158069E-1,-7.590218E-3,-2.5357556E-1,-6.034106E-3,-2.1956763E-1],"split_indices":[0,7,0,11,10,13,7,0,7,13,0,0,0,0,10,14,5,0,0,1,0,0,10,8,10,0,8,0,0,0,0,12,6,10,10,6,0,7,9,0,0,0,0,0,0,0,0,0,0,0,0,0,0,0,0],"split_type":[0,0,0,0,0,0,0,0,0,0,0,0,0,0,0,0,0,0,0,0,0,0,0,0,0,0,0,0,0,0,0,0,0,0,0,0,0,0,0,0,0,0,0,0,0,0,0,0,0,0,0,0,0,0,0],"sum_hessian":[5.615512E2,1.8283386E1,5.432678E2,1.2397408E1,5.885979E0,4.190414E0,5.390774E2,9.52735E0,2.870057E0,4.761276E0,1.1247032E0,2.4448555E0,1.7455584E0,3.499726E2,1.891048E2,4.304756E0,5.2225947E0,1.8008299E0,1.0692271E0,3.0342374E0,1.7270385E0,1.0623874E1,3.393487E2,7.477939E0,1.8162686E2,1.2694898E0,3.0352662E0,1.6459891E0,3.5766058E0,1.2958595E0,1.7383779E0,4.045487E0,6.5783873E0,9.153352E0,3.3019534E2,4.168884E0,3.3090553E0,2.2867294E1,1.5875957E2,1.360518E0,1.6747482E0,2.1911418E0,1.8543451E0,1.5180469E0,5.0603404E0,4.7439594E0,4.4093924E0,3.7448757E1,2.927466E2,2.726303E0,1.4425806E0,1.1135363E1,1.1731933E1,1.5309554E2,5.664022E0],"tree_param":{"num_deleted":"0","num_feature":"15","num_nodes":"55","size_leaf_vector":"0"}},{"base_weights":[-3.622398E-3,-1.0114754E-2,3.4536365E-1,1.3019007E-3,-2.646231E-1,7.8759784E-1,-2.7760008E-1,4.449065E-2,-5.7627887E-2,1.2264008E-1,-5.0822717E-1,8.6150193E-1,2.6536143E-1,1.4963765E-1,-8.0770934E-1,2.0969793E-1,-8.8510495E-3,1.2610298E-1,-1.8024826E-1,-7.1272516E-1,6.1381996E-1,-9.7208565E-1,-2.4428838E-1,-5.194451E-1,7.116332E-1,-9.415873E-2,3.8826156E-1,-2.0713507E-1,7.41743E-2,4.1106555E-1,-4.9085423E-2,-3.767971E-1,-4.141117E-2,3.9086896E-1,-1.1997904E0,7.7039826E-1,-9.297421E-2,6.5384567E-1,-5.041383E-1,6.149924E-2,-6.1140335E-1,5.389352E-1,-4.677716E-3,2.322679E-1,-4.640645E-1,8.643179E-1,-6.1147176E-3,-9.3840504E-1,5.150938E-1,-1.2076807E0,7.424123E-3,-5.062094E-1,5.155754E-1,6.1818957E-2,-8.3680636E-1,9.705841E-1,1.0456018E-1,2.947266E-1,-8.3692825E-1],"categories":[],"categories_nodes":[],"categories_segments":[],"categories_sizes":[],"default_left":[1,1,1,1,1,1,1,1,1,1,1,0,0,1,0,1,1,1,1,1,1,0,1,0,0,1,1,1,1,1,1,1,1,0,0,1,0,0,1,0,0,0,0,0,0,0,0,0,0,0,0,0,0,0,0,0,0,0,0],"id":24,"left_children":[1,3,5,7,9,11,13,15,17,19,21,-1,-1,23,-1,25,27,29,31,33,35,-1,37,-1,-1,39,41,43,45,47,49,51,53,-1,-1,55,-1,-1,57,-1,-1,-1,-1,-1,-1,-1,-1,-1,-1,-1,-1,-1,-1,-1,-1,-1,-1,-1,-1],"loss_changes":[1.2681525E0,1.595372E0,3.0349298E0,1.3422327E0,2.2860894E0,1.2193441E-2,1.249536E0,2.6836438E0,5.047914E0,4.502778E0,1.557884E0,0E0,0E0,1.7245301E0,0E0,4.0687847E0,3.8182635E0,4.5065575E0,3.646072E0,2.6896055E0,8.2157135E-1,0E0,2.8225663E0,0E0,0E0,2.3171146E0,2.7854123E0,7.834525E0,1.0381564E1,5.3014507E0,3.711164E0,6.6615744E0,6.600802E0,0E0,0E0,6.5230656E-1,0E0,0E0,2.599348E0,0E0,0E0,0E0,0E0,0E0,0E0,0E0,0E0,0E0,0E0,0E0,0E0,0E0,0E0,0E0,0E0,0E0,0E0,0E0,0E0],"parents":[2147483647,0,0,1,1,2,2,3,3,4,4,5,5,6,6,7,7,8,8,9,9,10,10,13,13,15,15,16,16,17,17,18,18,19,19,20,20,22,22,25,25,26,26,27,27,28,28,29,29,30,30,31,31,32,32,35,35,38,38],"right_children":[2,4,6,8,10,12,14,16,18,20,22,-1,-1,24,-1,26,28,30,32,34,36,-1,38,-1,-1,40,42,44,46,48,50,52,54,-1,-1,56,-1,-1,58,-1,-1,-1,-1,-1,-1,-1,-1,-1,-1,-1,-1,-1,-1,-1,-1,-1,-1,-1,-1],"split_conditions":[4.0027647E0,-2.2886258E-1,